Layer 1 weights,Layer 2 weights,Layer 3 weights,Layer 1 biases,Layer 2 biases,Layer 3 biases
-0.018825259,0.14645503,-0.21470231,0.034090757,0.036391035,-0.030642321
-0.019527286,0.046581317,-0.18229856,0.06905759,0.15383022,0.067828104
0.021466443,0.12939207,-0.03411439,-0.07932772,0.02568263,-0.045207232
-0.023629453,0.04925888,-0.06120915,-0.030060079,-0.045153093,0.056032415
-0.016788688,0.0097957505,-0.12690061,0.08205234,0.12126076,-0.01961582
0.019427985,-0.10491504,-0.062190868,0.006966767,0.013963474,0.12318172
-0.026557978,-0.033216275,-0.1457066,0.053327233,0.06466662,-0.03916854
0.01751529,0.11119196,0.042402808,-0.064944424,0.043502405,0.16710761
0.021747688,-0.12230082,0.015016566,0.055453725,0.022798935,0.025208872
0.009693508,-0.048990153,-0.06456744,0.03227033,-0.008500901,-0.14490922
0.006401173,-0.059101664,-0.10581397,0.12255702,-0.08224566,
0.013806399,0.11714181,0.05323776,-0.022045303,-0.020887243,
0.031385176,0.03508709,0.026263863,0.048628952,0.079358846,
0.0047049574,0.014013723,-0.133358,-0.06321401,0.105939575,
-0.023913134,-0.09045138,0.013162626,0.033022773,-0.016530085,
0.03717819,0.08076926,0.09961545,-0.09245887,-0.077755556,
0.0261892,-0.117178895,0.07782769,0.1558628,0.120040156,
-0.00082749134,0.20539652,0.047396265,0.12337885,0.06198144,
-0.020878453,0.28290653,-0.13821876,-0.04754841,0.2246538,
-0.013832825,-0.06849919,-0.22149558,-0.06619378,-0.07197373,
-0.0315341,0.087026425,-0.102033496,0.021508623,-0.03507626,
0.023668278,0.011325481,0.14518827,0.10175229,-0.1303299,
-0.0030992671,0.023868024,0.09699457,0.028146328,-0.1271885,
0.02460665,-0.11381733,0.12806419,-0.07916794,0.08028258,
0.0134472,0.10944182,-0.021290014,0.09696337,0.15111367,
-0.0070851534,0.05665498,0.17289014,-0.0915328,0.07733958,
-0.022837184,-0.04191029,-0.04488785,0.059783295,0.07142135,
0.012429765,0.06060637,0.17903122,-0.040827006,0.016181838,
-0.022915756,-0.1237968,-0.15286557,0.025160946,0.11128548,
-0.007937062,-0.03399345,0.05648022,-0.08932582,-0.062056765,
0.021231474,-0.05795616,-0.155785,-0.06384456,0.13913368,
-0.0194478,-0.011493815,0.07688388,0.084244244,0.04318458,
0.11815562,-0.04778987,-0.17859548,0.0646008,0.0592141,
0.1334609,-0.114097066,-0.17722255,0.02054032,0.19093361,
0.36584455,-0.058274124,-0.048470095,-0.036265872,0.12176765,
0.362407,0.093275115,0.011416634,0.083595484,0.096107095,
0.3609482,-0.007278803,-0.097312264,-0.027378151,0.09682934,
0.20821235,0.17812471,-0.074653745,0.06819518,-0.1315536,
0.258154,-0.109940715,0.13685387,0.0052425135,-0.14706329,
0.20076682,0.03588455,-0.030552935,0.044382192,0.10760221,
0.23772973,0.10034516,0.048448347,-0.0065628462,0.20721763,
0.23410666,0.010990425,0.120719045,0.01926086,-0.027685462,
0.19153798,0.020861663,0.14209269,0.04830192,0.01896042,
0.17914754,0.12548128,-0.14263144,-0.0042386362,0.09005461,
0.2745028,-0.3781506,-0.05315033,0.08591045,0.04276941,
0.21064417,0.1266105,-0.11496305,0.05391933,0.064056754,
0.25202835,0.003187198,-0.17782784,0.036613535,0.0085204635,
0.2801905,-0.007818408,0.06366096,0.030268505,-0.017122623,
0.3019656,0.18753612,0.05552509,0.07878611,-0.08429273,
0.29017285,0.06875714,0.070470236,0.027286086,-0.08465166,
0.3128648,0.020780146,0.079508446,-0.03949524,-0.08430236,
0.3615813,0.033958435,0.07577216,0.085394084,0.021812245,
-0.000465921,0.00287534,-0.06359759,-0.044655994,-0.12941402,
-0.03052437,-0.024034819,0.08760157,0.12182924,0.03932451,
-0.006918141,-0.06252491,0.03475823,-0.17765647,-0.113891706,
-0.03273662,0.12494396,-0.05022621,0.022441158,-0.1287533,
0.0077164816,-0.19187407,0.13080472,0.0293079,0.052243017,
0.0060146754,-0.03742658,-0.1806792,0.05623191,0.13268186,
0.15443952,0.013868419,0.13142112,0.10194218,0.09921076,
0.5867365,0.2825243,0.11599097,0.10796779,-0.06864955,
0.24550973,0.0044903676,-0.22771746,-0.009911727,0.020961232,
0.18475555,0.086977914,0.05915676,0.105185054,0.008988085,
0.2227679,0.14689879,-0.115840286,-0.035162855,0.09230746,
0.294145,0.015710196,-0.16685759,0.04639989,0.15000658,
0.26475492,0.5411266,-0.0085910335,-0.027452886,,
0.20427224,0.09804704,0.18472598,0.04644486,,
0.29092526,0.06643383,0.06476711,-0.06483775,,
0.25826418,0.45678028,-0.11950208,0.017927296,,
0.24709733,-0.0034709887,-0.16597319,-0.002840414,,
0.1590668,-0.08738167,0.06815099,0.059944473,,
0.20577887,0.08569981,0.009458028,-0.04599797,,
0.17335458,0.21027443,-0.15702705,0.095378324,,
0.10512779,0.01698189,-0.120075606,-0.04504436,,
0.123217344,0.17854196,0.13893299,0.017290197,,
0.12731259,-0.12838161,0.11405055,-0.0020897014,,
0.12857983,-0.1757846,-0.045431256,0.024161085,,
0.11413662,0.83103955,-0.16949472,0.25076902,,
0.23835854,0.2551438,0.105002634,0.073728934,,
0.30045512,0.025354773,-0.111030534,0.02307157,,
0.29069474,0.002818406,-0.11275118,0.050777696,,
0.30807,0.081160665,0.055679068,-0.068583414,,
0.21663667,-0.04920842,-0.008963819,0.09948399,,
0.014583133,-0.02144792,0.12501721,0.03825337,,
0.011602185,0.11053575,-0.06229083,-0.034168378,,
0.0073646097,0.18527865,0.04142932,0.036277723,,
0.0023506114,0.018609945,-0.1452207,-0.026220147,,
0.14835857,0.09865438,-0.14632978,0.10335669,,
0.54191387,0.059747305,-0.09939131,-0.045975856,,
0.30678782,-0.028516985,-0.117512256,0.023510586,,
-0.08389141,0.08276025,0.06668896,-0.12128084,,
0.22430779,-0.014234201,0.31100544,0.058964625,,
0.21092655,-0.06787611,0.23868823,0.10721011,,
0.21319811,0.058344107,0.08615226,0.020461513,,
0.15971704,-0.028261403,-0.20002204,0.054375608,,
0.17074853,-0.58747405,0.12483283,-0.35399553,,
0.15545665,0.72131085,-0.13672511,-0.052780613,,
0.14281169,0.026729742,0.06203444,-0.017815925,,
0.12853636,0.1887421,-0.08026718,-0.0040257205,,
0.11467958,-0.117566325,0.2154107,-0.05033278,,
0.045811668,0.051888127,0.2114322,-0.064899504,,
0.059352603,0.011223956,-0.1417828,0.0046766824,,
0.06666534,0.22007443,0.028132422,0.06637322,,
0.060318287,-0.17837541,-0.026813092,-0.09997304,,
0.11830519,0.24470243,0.22105211,-0.0075488216,,
0.015706575,-0.03316939,-0.114071816,0.004956555,,
0.019700557,0.14131425,-0.08369683,0.013726976,,
0.03215388,0.02343368,0.083983764,0.036914065,,
0.1522948,0.09516076,0.1630046,-0.06794436,,
0.15384057,0.14761196,-0.11260733,0.07989405,,
-0.2890821,-0.06154843,-0.043592285,-0.17483999,,
-0.25660363,0.1106076,-0.12085252,-0.012054225,,
0.03114681,0.28702733,0.1478114,-0.10500006,,
-0.035036158,0.047647808,-0.0121183805,0.046985157,,
-0.106757246,0.0010778876,0.062574536,0.028092712,,
-0.016900685,0.031776864,-0.055704545,0.039221086,,
0.14662082,0.14068694,-0.16271767,-0.017804926,,
-0.116712876,-0.036819723,0.05813285,0.013496404,,
0.3468496,0.1343345,-0.045317035,0.019376637,,
0.3951056,0.08185401,-0.15590043,0.032777637,,
0.19811408,0.09122006,0.10940843,0.032420542,,
0.25230646,-0.0642817,0.0071673654,-0.0175802,,
0.14453009,0.0028297782,0.09078057,0.08888893,,
0.2046755,-0.04035386,-0.17416754,0.0008100519,,
0.16002133,-0.014889385,0.11531076,-0.034130357,,
0.09257228,0.09723704,-0.00079378486,-0.035994723,,
0.073549956,-0.05096366,-0.14526895,0.099212244,,
0.0057463013,0.15906353,-0.15391426,-0.015532432,,
-0.029511774,0.007849155,-0.10703156,0.015609568,,
0.022094563,0.17042889,0.22510841,,,
-0.011516282,0.016309815,0.050298855,,,
-0.0037722415,-0.043424483,0.012525343,,,
-0.026497744,-0.22117808,-0.15438364,,,
-0.05660629,0.12907377,0.1048735,,,
-0.101745315,-0.0928116,-0.149688,,,
-0.20205936,-0.013607248,0.021154791,,,
-0.174037,-0.036969848,-0.1324746,,,
-0.37567303,0.12159975,0.17760001,,,
-0.40286583,0.06461243,0.20029294,,,
-0.35086256,-0.0005587714,0.011660709,,,
0.2272652,0.048907675,0.041916125,,,
0.027601013,0.04102039,-0.15264289,,,
0.031286757,0.008909271,0.0028654914,,,
0.21324098,0.11872065,-0.032634422,,,
-0.33474797,-0.12365351,-0.15407386,,,
-0.15292567,0.089375354,-0.12216336,,,
-0.051913805,-0.04712436,0.021433888,,,
-0.0023010084,0.11652034,0.023896713,,,
0.0024318232,0.04921137,0.12451554,,,
0.05161323,0.009495863,-0.048484523,,,
0.060813073,0.08458753,0.12044031,,,
0.030955467,0.070852,0.09303908,,,
-0.035263453,0.0030283246,0.13017295,,,
-0.045968663,-0.0006999443,0.07818198,,,
-0.020031426,0.10858463,-0.031831946,,,
0.016764466,-0.028401617,0.20253617,,,
-0.027669726,0.10649833,-0.0649108,,,
0.007083641,0.15367036,0.012668205,,,
-0.0051225647,0.020225363,-0.103269875,,,
-0.0021507798,-0.03743384,-0.08182985,,,
-0.054619912,-0.03478132,-0.0037975186,,,
-0.0951917,0.12841173,-0.080084525,,,
-0.17979683,-0.11900638,0.012088973,,,
-0.17149585,0.10675949,-0.014927173,,,
-0.12914503,0.109027155,-0.1802179,,,
-0.14752515,-0.10389702,-0.19638951,,,
-0.21038228,0.030855311,0.075975284,,,
-0.19773963,0.12897404,-0.048180416,,,
0.10054424,-0.11383631,-0.051044144,,,
-0.010837964,-0.0543779,-0.14642292,,,
0.028358527,0.007554248,0.07438376,,,
0.40906903,0.036375143,0.16288678,,,
-0.49579802,0.1376903,-0.07258383,,,
-0.21382459,-0.116433986,-0.0062430426,,,
-0.070296034,0.06591329,-0.082109675,,,
-0.050589424,-0.12827726,0.082045645,,,
-0.04329474,0.06265045,0.030290974,,,
-0.06176492,0.05530495,0.091375686,,,
-0.047559127,0.028978007,0.21101841,,,
-0.061229676,0.016609404,0.0059914533,,,
-0.059365798,-0.0023920315,-0.027699243,,,
-0.099352635,0.071465515,0.0028931422,,,
-0.0461762,0.023586873,-0.13726161,,,
-0.055869546,-0.4192366,0.093093686,,,
-0.002929735,0.01791476,0.008619856,,,
0.014690999,0.25295717,-0.08609228,,,
-0.01755262,-0.036756836,0.04852947,,,
-0.053150937,-0.026805729,0.13158259,,,
-0.13483512,-0.0050977697,0.14869295,,,
-0.1894646,0.18723013,-0.08186783,,,
-0.13402507,0.18838191,0.0804363,,,
-0.0966555,0.05146462,0.07558379,,,
-0.16150324,-0.08429684,-0.10674069,,,
-0.15103997,-0.11715341,0.026879704,,,
-0.19857827,-0.047746852,0.11602715,,,
-0.26471123,0.1256825,-0.2388581,,,
-0.43575543,0.27214122,-0.013340806,,,
-0.030654768,-0.056291655,-0.074248075,,,
-0.0067695556,-0.123886034,-0.085952066,,,
0.54124916,0.061642326,0.14101487,,,
-0.37607452,0.08622254,0.14212869,,,
-0.20100568,0.039655756,-0.1042057,,,
-0.16888356,0.07073347,0.05313425,,,
-0.10037865,0.30506068,-0.13431713,,,
-0.07029903,-0.29817528,0.038505115,,,
-0.06657297,0.27630147,0.13016564,,,
-0.032836154,0.052264128,0.103200585,,,
-0.080572955,0.04599282,0.18928266,,,
-0.08215278,0.09049385,-0.041928843,,,
-0.0972067,0.030473182,-0.074689224,,,
-0.004666123,-0.104229294,-0.139241,,,
0.05623658,-0.115564525,-0.12972683,,,
0.013240139,-0.0765996,0.051764425,,,
-0.0436147,0.09452816,-0.04345355,,,
-0.059023183,-0.07584222,0.08547869,,,
-0.09670214,0.04564823,0.078917116,,,
-0.15774363,0.035487413,-0.045561053,,,
-0.19245829,0.122744724,0.079453826,,,
-0.16004016,-0.11045975,-0.042306475,,,
-0.14091466,0.079813525,-0.06584429,,,
-0.20616107,0.19476119,-0.17630388,,,
-0.16545779,0.04502488,-0.18678518,,,
-0.23034385,0.055100914,0.22352885,,,
-0.18781373,0.108996905,0.1023455,,,
-0.45758843,0.38017344,-0.030302987,,,
0.3596052,0.03315805,0.033045776,,,
0.46906102,0.040434267,-0.1665687,,,
0.33722645,0.32150623,0.03734257,,,
-0.041334912,-0.017835407,0.20198667,,,
-0.17488097,-0.039395723,0.006134717,,,
-0.18331867,0.27049437,-0.11469896,,,
-0.061040338,-0.32728016,0.03588111,,,
-0.06904899,-0.19134365,0.143871,,,
-0.064274125,0.018043716,0.057216685,,,
-0.0133560775,0.19788231,0.10338728,,,
-0.08470464,-0.072526805,-0.06345578,,,
-0.089334145,0.07965822,-0.2295081,,,
-0.08658773,-0.028267717,0.1887164,,,
0.022967558,0.13090113,-0.17410116,,,
0.124754176,0.017145142,0.017354986,,,
0.112905964,0.2768691,0.01922766,,,
0.04030105,0.045953915,-0.0007416098,,,
-0.06619883,0.012387483,-0.015638096,,,
-0.18444768,0.15663187,-0.06196197,,,
-0.1741983,0.12597851,-0.16460057,,,
-0.12931825,0.16230148,-0.022489553,,,
-0.1792861,0.09339891,-0.023335319,,,
-0.21055171,0.06963574,0.09980833,,,
-0.20846245,0.17397116,0.14764369,,,
-0.22694805,-0.067765184,-0.10928384,,,
-0.20159888,-0.021104842,0.14806266,,,
-0.35530236,-0.0006343892,-0.10500508,,,
-0.43045676,0.018870704,-0.045726433,,,
-0.07107692,0.02067196,0.17468017,,,
-0.011564895,0.031214375,-0.07685825,,,
0.15442243,-0.023717685,-0.088070765,,,
0.5206161,0.18076077,-0.10052612,,,
0.10901952,0.040910713,0.044512406,,,
0.01361383,-0.00029826854,-0.102310374,,,
-0.006891622,-0.056893934,0.014445822,,,
0.0025037539,0.011094478,0.09962328,,,
0.010517223,-0.11230397,0.16691545,,,
-0.075738154,0.11660613,0.15826064,,,
-0.097246654,0.028188258,0.14260232,,,
-0.10290963,-0.09532517,-0.15850571,,,
-0.04890727,0.1302761,0.13674276,,,
0.009734877,0.04019497,-0.14453124,,,
0.11144997,0.0062430147,-0.10103554,,,
0.13710573,-0.049824882,0.025400056,,,
-0.004379687,0.07533686,-0.07354767,,,
-0.07836101,0.034861,0.030465318,,,
-0.15455963,0.0047332663,-0.11976147,,,
-0.1308786,-0.07478292,-0.021942459,,,
-0.10405353,0.26370606,0.038289472,,,
-0.13703014,0.15524884,0.05396428,,,
-0.18051822,-0.09442437,-0.056901626,,,
-0.22120568,-0.043757904,-0.12988344,,,
-0.25718465,-0.085629486,-0.11047624,,,
-0.24844758,0.0233906,0.02169025,,,
-0.4382944,0.049730845,0.16130516,,,
-0.59315145,0.036713608,0.15471408,,,
-0.07743513,0.050003257,0.1479947,,,
0.048982248,0.05444746,-0.03815645,,,
0.2953187,-0.009455277,-0.07449553,,,
0.48820078,-0.043919556,-0.086902656,,,
0.04235271,-0.1770317,0.044024505,,,
0.15184893,-0.03682531,-0.083247684,,,
0.085620806,-0.028767291,-0.08429256,,,
0.037481062,0.04995713,0.07345181,,,
-0.04599582,0.08191197,-0.039961927,,,
-0.100646995,0.005694083,0.21025819,,,
-0.050150346,-0.011506471,-0.027963007,,,
-0.072944835,0.0021236697,0.0055574235,,,
-0.08229138,0.082309596,0.1581746,,,
0.011538243,-0.054891784,-0.1727767,,,
0.10442466,-0.11507268,0.0075026033,,,
0.061742596,0.07126551,-0.15748945,,,
-0.05932295,-0.10821035,0.07898287,,,
-0.09282968,0.013513912,-0.15628172,,,
-0.13609262,0.07729278,-0.2380222,,,
-0.11094048,0.007494308,0.17105784,,,
-0.037179247,0.53212327,-0.15811577,,,
-0.019729624,0.0633388,0.15037893,,,
-0.04303621,0.07401251,0.07093305,,,
-0.20162162,-0.014745437,-0.19735295,,,
-0.32039344,0.15662442,-0.15385692,,,
-0.29371965,-0.040621493,-0.049500182,,,
-0.28196403,0.14876431,-0.08864925,,,
-0.45484802,0.010134564,0.01717382,,,
-0.049843308,-0.09035971,0.037992805,,,
0.0048276456,0.08934359,-0.08822632,,,
-0.02614223,-0.044895362,-0.2082951,,,
0.18221854,-0.057855412,-0.010841534,,,
-0.090254374,-0.08911871,-0.09360927,,,
-0.07310637,0.23708852,0.05320884,,,
0.03587875,0.1000593,0.018322976,,,
-0.035231467,0.14606941,0.12245595,,,
-0.0921635,-0.10291223,-0.16711433,,,
-0.07189084,-0.007343906,-0.19235025,,,
-0.11676721,0.005980479,0.20805305,,,
-0.08659455,0.22224994,0.06917948,,,
-0.06529333,0.022086872,-0.1374268,,,
0.029996341,-0.069333136,0.028589938,,,
0.003458872,0.015532646,0.042875316,,,
-0.009542672,0.017373824,-0.15506092,,,
-0.12596783,0.12773792,-0.044555742,,,
-0.112978406,0.017317787,-0.1293053,,,
-0.07737637,0.06621831,-0.21994889,,,
-0.03159109,0.16080017,0.03913433,,,
0.08783853,-0.03981769,-0.0024857728,,,
0.2224067,-0.23507722,-0.27521557,,,
0.12437698,0.14659856,0.057653394,,,
-0.015004569,-0.087773725,-0.17142788,,,
-0.25616938,0.16172889,0.122399196,,,
-0.41676944,0.14784001,-0.14469953,,,
-0.46938053,0.059928525,0.1065823,,,
-0.1343923,-0.01538528,0.096335635,,,
0.0040174853,0.14315152,0.13214764,,,
0.03966637,-0.009572128,0.12961096,,,
-0.021720905,-0.025277788,0.040706065,,,
-0.20883152,-0.062460817,0.04114068,,,
-0.29129604,0.012137142,0.1334334,,,
-0.14047228,-0.037660964,-0.14283125,,,
-0.1166023,0.2137388,-0.042046204,,,
-0.13883068,-0.0034785485,0.10574809,,,
-0.0702373,0.0031524128,0.1023675,,,
-0.0552261,-0.0034185697,0.13388133,,,
-0.03290374,0.025118696,0.11339528,,,
-0.06401349,0.00801544,-0.059605524,,,
-0.06446627,-0.07011948,-0.069555216,,,
-0.03940928,0.025724351,0.01608719,,,
-0.03729828,-0.14791137,-0.15972197,,,
-0.070131145,0.31113076,0.12511477,,,
-0.076543875,0.14797132,0.018107103,,,
-0.09274038,-0.012677633,0.10793306,,,
-0.09925728,-0.21231592,0.10375482,,,
0.019455692,-0.010117973,-0.04418729,,,
0.14010015,0.2515534,-0.20478159,,,
0.1927211,-0.029618002,0.03701839,,,
0.21912831,0.01801694,0.023138423,,,
0.06630223,0.27320758,0.112695284,,,
0.11167992,-0.044096965,0.12610327,,,
-0.21306941,-0.098794624,0.08595216,,,
-0.36112493,0.06950408,-0.11177766,,,
0.25572497,-0.07407339,-0.20153363,,,
0.14532378,0.07617205,-0.103348084,,,
0.10485458,-0.09852468,0.028237462,,,
0.0011440257,0.008304064,0.15739806,,,
-0.19629526,-0.087724954,-0.039389856,,,
-0.2875529,0.022423133,-0.035526432,,,
-0.16539197,0.00826758,-0.15601794,,,
-0.18366359,0.022485357,-0.065672666,,,
-0.13201691,0.7352502,0.16877279,,,
-0.05069418,-0.012496521,0.1671121,,,
-0.0021240278,-0.051137265,0.15240559,,,
0.010284576,0.017832572,0.0006125178,,,
-0.02944308,-0.1316942,-0.0034503744,,,
-0.05975052,0.027775833,0.07049609,,,
0.014950404,0.040772367,0.03821607,,,
0.026474958,-0.032406453,-0.16712734,,,
0.009225331,-0.07601824,-0.23408484,,,
-0.10204852,0.027824493,0.13123211,,,
-0.13499744,0.052517414,-0.04267354,,,
-0.08773287,-0.018451981,-0.05285702,,,
0.076808006,0.14109075,0.15654266,,,
0.092363395,0.039326206,-0.05243117,,,
0.17936204,0.00064816856,0.05165081,,,
0.2067893,-0.1194915,-0.027236955,,,
0.13963602,0.010325923,0.021003839,,,
0.22058849,-0.021411983,0.098594435,,,
-0.17827278,-0.0654324,0.061773784,,,
-0.01041007,0.015935479,-0.1655931,,,
0.30441698,-0.12342431,0.035623714,,,
-0.16240862,-0.010739223,0.09094322,,,
-0.0062197903,-0.029386401,-0.10896566,,,
0.007950322,-0.00380246,0.058454014,,,
-0.28758532,0.09467774,0.01762261,,,
-0.26888552,0.012357956,-0.18553531,,,
-0.20910203,-0.04061328,0.15608644,,,
-0.14010221,-0.08042898,-0.033023056,,,
-0.02909167,-0.037902858,0.098815635,,,
-0.020375675,0.070480205,0.19001986,,,
0.083994545,-0.021240406,0.21181709,,,
0.076393194,-0.12094194,-0.19594984,,,
0.051566787,-0.12541828,-0.051637653,,,
0.0212388,-0.122380406,-0.07540704,,,
0.03484367,-0.06918423,-0.21213564,,,
0.063757196,-0.045568965,0.020303398,,,
0.033969626,0.02224036,0.09037923,,,
-0.10413303,-0.082933895,-0.21856175,,,
-0.1078807,-0.13632664,0.12010845,,,
-0.06128239,0.005180836,-0.026906265,,,
0.017403696,-0.095653236,-0.124725536,,,
0.15453,-0.14624844,0.02749604,,,
0.20375867,0.12196708,-0.16501138,,,
0.24300753,-0.07753401,-0.23733768,,,
0.17825031,-0.09174737,0.09739103,,,
0.12151965,-0.13432403,-0.09077433,,,
-0.02879893,-0.013396088,-0.07071993,,,
0.04519296,0.019086361,-0.20682794,,,
0.46060935,-0.014280685,0.145705,,,
-0.12282657,-0.08254166,-0.15144785,,,
-0.091344304,-0.116982184,-0.048254587,,,
-0.18881215,-0.068856426,-0.10341076,,,
-0.28707114,0.0212026,0.17042278,,,
-0.371352,0.10760064,-0.2364308,,,
-0.23793955,-0.049898602,0.14213172,,,
-0.11052654,-0.060901865,0.09712541,,,
-0.05811279,-0.11053718,-0.1598432,,,
0.05412759,-0.13352059,-0.06649951,,,
0.10719069,0.065154515,-0.05045858,,,
0.113127775,-0.09660093,0.061509445,,,
0.13520116,-0.043342277,-0.0063566915,,,
0.05396708,0.07647033,0.10146319,,,
0.06834408,0.054792706,-0.034767408,,,
0.072653346,-0.049190756,-0.13061005,,,
-0.02993049,-0.09941176,-0.013189763,,,
-0.10036798,-0.07754034,-0.028692193,,,
-0.103187196,-0.058107834,0.05283907,,,
-0.05505718,-0.06264858,-0.016547857,,,
0.07314072,-0.023903495,-0.10919128,,,
0.16319533,0.013845136,-0.120633416,,,
0.13538118,-0.0416231,-0.10784701,,,
0.13273652,-0.018376246,0.17244081,,,
0.123165764,-0.096792996,-0.05242775,,,
0.18984061,0.069684565,0.0777645,,,
0.1441706,-0.073610365,-0.17676312,,,
-0.29756856,-0.11567567,0.049721472,,,
0.3544602,-0.08193772,-0.064986326,,,
-0.04754605,-0.027160587,0.14453204,,,
0.014233706,0.009906075,-0.12054656,,,
-0.16702236,-0.061143454,0.18827632,,,
-0.34629625,0.0062364433,-0.0148555925,,,
-0.36807963,-0.13109826,-0.27241784,,,
-0.19605225,-0.1275182,0.0014310868,,,
-0.11784571,-0.034848727,0.013896987,,,
0.02382359,-0.02255506,0.1622069,,,
0.063220486,-0.0013420356,-0.10485019,,,
0.18809228,-0.023106249,-0.03797381,,,
0.1799035,-0.1275914,0.0030046818,,,
0.13191733,-0.10622788,0.026215665,,,
0.05926042,-0.12055561,0.027942631,,,
0.109241486,-0.119425505,-0.0343584,,,
0.0968503,0.023158923,0.09903705,,,
-0.0313474,-0.062216643,0.08417828,,,
-0.13121893,-0.041068386,-0.31007028,,,
-0.07251681,-0.03837945,-0.17669973,,,
0.026649695,-0.025794415,0.09286095,,,
0.042858295,-0.100197956,0.028241063,,,
0.106570154,-0.08493142,-0.05697996,,,
0.14247814,0.01903043,0.067403644,,,
0.10946624,-0.069773406,0.040831547,,,
0.14476691,-0.03610002,0.13334578,,,
0.13895601,-0.07308152,0.21873857,,,
0.26798362,-0.05093013,0.13217165,,,
0.030295834,-0.13741751,-0.070697434,,,
0.035006054,0.021410948,-0.02044508,,,
-0.026271762,-0.007101033,0.14578584,,,
0.021907162,-0.10403265,-0.14061253,,,
-0.17956772,0.0027532314,0.1533375,,,
-0.21834028,-0.115007445,-0.18127453,,,
-0.28959006,-0.07796375,0.13756528,,,
-0.20552756,-0.03165564,0.020079225,,,
-0.1153122,-0.031325385,-0.087356195,,,
-0.042224042,-0.06974864,0.20293882,,,
0.069506645,-0.10496369,0.057380587,,,
0.16168553,-0.061023053,-0.0875905,,,
0.21699978,-0.05462278,-0.26858652,,,
0.1582319,-0.07654893,-0.081012614,,,
0.10495099,-0.11519999,0.15898329,,,
0.058543764,0.090965524,-0.24544561,,,
0.06911688,-0.05718566,0.03338948,,,
-0.10801009,-0.14603266,0.010100167,,,
-0.12298625,-0.04743322,0.120556474,,,
-0.016784567,-0.0823463,0.092532426,,,
0.08746419,-0.14378545,-0.23806544,,,
0.07342386,0.0110342465,0.016335707,,,
0.064459264,-0.08951819,-0.23554717,,,
0.045109726,-0.053071067,0.10207866,,,
0.051191166,-0.083802216,-0.10824447,,,
0.08054392,-0.052299663,-0.2626747,,,
0.037016265,-0.13217573,-0.0519677,,,
0.30686006,-0.0668903,-0.08656418,,,
-0.07037461,-0.03637713,-0.14033388,,,
0.52940035,-0.07408587,-0.21270607,,,
-0.08607302,-0.1036449,-0.11124327,,,
-0.081536725,-0.08806864,-0.25230008,,,
-0.23989826,-0.043684077,0.07659346,,,
-0.21021634,-0.057395156,0.16572008,,,
-0.21452637,0.043987244,-0.2335976,,,
-0.23936144,-0.041562907,0.08457342,,,
-0.15930858,-0.0781324,-0.11014286,,,
-0.047115084,0.022884244,0.03871324,,,
0.017367072,0.08052976,-0.15403435,,,
0.11636082,0.0010068642,-0.014588881,,,
0.1372499,-0.008766391,0.040588267,,,
0.07988345,0.1174387,-0.040606786,,,
0.08539285,-0.02026574,-0.072992,,,
0.03367529,-0.11745895,-0.0062766694,,,
0.031184422,0.07407355,-0.020233192,,,
-0.024113066,0.14774744,-0.0012073948,,,
-0.01458359,-0.11077885,-0.13365126,,,
0.06617725,-0.12434065,0.0024771178,,,
0.09633073,0.0986884,-0.031516265,,,
0.045412898,-0.08513505,-0.16981213,,,
0.03016886,0.060734622,0.018622853,,,
0.024224952,-0.012032421,-0.036228094,,,
0.040611792,-0.054769613,-0.12779698,,,
0.09296907,0.066053815,0.020229712,,,
0.15243068,0.08785489,-0.05133401,,,
0.4068605,0.1576491,0.075298585,,,
-0.3377307,-0.33933938,-0.1593055,,,
0.2506278,0.10470035,0.13544147,,,
0.10755777,-0.093072474,0.178925,,,
0.07347211,0.094566725,0.10369905,,,
-0.39776918,-0.18705064,-0.057797827,,,
-0.3285387,-0.0671708,0.06481398,,,
-0.1779805,-0.10468131,0.015021457,,,
-0.16875334,-0.17304042,-0.17700309,,,
-0.18395127,0.025517,-0.19865745,,,
-0.09955099,-0.02742191,-0.1271256,,,
0.0028243205,0.14994381,0.11136038,,,
0.051956132,0.027650401,-0.067199565,,,
0.098801635,-0.076701686,-0.053795002,,,
0.11166719,0.045328204,0.040042333,,,
0.10462334,-0.0042560236,0.011518625,,,
0.051278535,0.15629806,-0.14698154,,,
0.028344637,-0.07252759,-0.009769544,,,
0.051388357,-0.0014198509,-0.09362738,,,
0.07900235,-0.091887005,0.08108053,,,
0.10476355,0.120765306,0.05921224,,,
0.078843646,-0.11540798,0.07229176,,,
0.0023778756,-0.044653352,-0.1233503,,,
0.0025092938,0.08057628,-0.124429554,,,
0.042621374,0.030354317,0.09235273,,,
0.06266016,-0.045374565,0.0751457,,,
0.07085622,0.02076205,0.19751617,,,
0.016575672,0.16904554,-0.057202805,,,
0.2729057,0.017574659,-0.09242763,,,
0.30115783,-0.03077833,0.056973763,,,
0.07653089,-0.19103229,0.18186206,,,
-0.030377218,0.06896452,0.07104246,,,
0.10255003,0.14378212,-0.10471003,,,
-0.28874975,0.008745843,-0.05986678,,,
-0.21756284,0.14834733,0.061326377,,,
-0.21215352,-0.017761221,0.0074936952,,,
-0.15591332,-0.057684965,-0.13500328,,,
-0.18757664,-0.17627378,0.12129417,,,
-0.11575896,-0.086690255,0.13387427,,,
-0.026449537,-0.4511899,0.0053755273,,,
0.032286394,-0.10307726,-0.0736557,,,
0.0998076,-0.1795533,-0.091033265,,,
0.12310745,-0.09307793,0.13238639,,,
0.12877145,0.1014125,0.19605103,,,
0.072684765,0.030950602,-0.062639266,,,
0.13755496,-0.07777296,0.11717448,,,
0.08721929,-0.177064,-0.08447215,,,
0.019240372,-0.015518237,-0.10787581,,,
0.03749945,0.090467095,-0.17709768,,,
0.05683369,-0.11883225,-0.09998381,,,
-0.061684363,-0.28429353,-0.12115993,,,
-0.05439544,-0.20652312,0.14052238,,,
0.0096608,-0.02726073,0.1618918,,,
-0.054174386,-0.20067416,-0.12071456,,,
-0.045219786,0.113264956,0.056288972,,,
-0.1407138,0.022948358,-0.19063798,,,
0.0005559322,0.13457872,0.0045299847,,,
0.33071575,0.2805688,0.039372426,,,
0.17093469,0.24327663,-0.058222823,,,
0.13129373,-0.13491377,-0.010431624,,,
-0.049809314,-0.0931183,0.07433996,,,
0.20200537,-0.087609775,-0.06737721,,,
-0.039502844,-0.07211095,0.06911424,,,
-0.100427695,-0.05847065,0.039059024,,,
-0.17633148,0.075836904,-0.11878289,,,
-0.17143197,-0.021876886,0.044883784,,,
-0.095420755,0.12758046,-0.05246759,,,
-0.025788756,-0.031561315,-0.13419954,,,
0.015410442,-0.06802485,-0.061791055,,,
0.07425489,0.07076407,-0.043486968,,,
0.046150003,0.02859532,-0.044121638,,,
0.091062866,0.10203531,-0.046288617,,,
0.071048945,0.09941673,-0.28505027,,,
0.08253797,0.16974337,-0.104764104,,,
0.04701158,-0.111914344,0.15812431,,,
0.018459052,-0.056934744,0.10460554,,,
-0.04149777,-0.05266672,-0.06963648,,,
-0.06095306,-0.19371094,0.024506835,,,
-0.17988867,-0.23715991,0.01326397,,,
-0.1755188,-0.20169427,0.1591464,,,
-0.18146661,-0.11038138,0.16844064,,,
-0.09911473,-0.08461181,-0.0029233042,,,
-0.22256862,0.06752628,-0.229093,,,
-0.28779688,-0.1890396,0.148433,,,
-0.035182837,-0.07223712,-0.003469986,,,
0.8113853,0.14858046,0.12150623,,,
0.14538722,-0.20478992,-0.19639939,,,
0.11271702,-0.1204449,0.1072829,,,
-0.0028972954,-0.035399742,0.051821444,,,
0.37038925,0.1429676,-0.065237164,,,
0.09185677,-0.13318941,-0.16384424,,,
0.028996415,-0.11805174,0.1389591,,,
-0.03601385,-0.097135514,0.11101046,,,
-0.1641984,-0.010583814,0.13749984,,,
-0.11024809,-0.053771254,-0.22396053,,,
-0.07761294,-0.13984373,-0.08578663,,,
0.006072671,0.06392967,-0.24889213,,,
0.04641861,-0.122323796,-0.015872153,,,
-0.023728326,-0.12344638,-0.05578044,,,
0.017461117,0.06614538,0.09832593,,,
-0.021361506,-0.08987635,0.06738328,,,
-0.05059691,-0.14727958,-0.11495273,,,
-0.060224697,0.012146886,0.16321573,,,
-0.070337005,0.12635615,0.17543472,,,
-0.17675535,0.12881142,-0.18412201,,,
-0.17628153,0.068114154,0.11110068,,,
-0.18407847,0.08166618,-0.11209173,,,
-0.21598887,0.00047302988,0.038952444,,,
-0.22899164,0.15311822,0.10470314,,,
-0.22488959,-0.10803625,0.05083656,,,
-0.371073,-0.10110804,-0.10085198,,,
-0.54794604,-0.014997525,,,,
-0.23040044,-0.016042162,,,,
0.06782443,-0.04016372,,,,
0.161984,0.1876102,,,,
-0.023372438,-0.023973586,,,,
0.013711385,0.11445098,,,,
-0.04915968,0.11223725,,,,
-0.032348234,0.019247908,,,,
-0.14683886,0.10776569,,,,
-0.054110352,-0.007296021,,,,
-0.15227331,0.12569329,,,,
-0.16219343,0.031048315,,,,
-0.11685405,0.15110816,,,,
-0.028473241,0.0021800997,,,,
-0.05777878,0.14905886,,,,
-0.066549055,-0.011854195,,,,
-0.029693529,0.2709316,,,,
-0.067992784,-0.0020417082,,,,
-0.1070461,-0.23062101,,,,
-0.103644334,0.078122534,,,,
-0.14117578,-0.03949616,,,,
-0.17300898,-0.0119585525,,,,
-0.17541426,0.095725656,,,,
-0.13519193,0.07332767,,,,
-0.13549569,-0.037230365,,,,
-0.1828055,-0.024821041,,,,
-0.2348802,0.15865958,,,,
-0.44650742,-0.065474644,,,,
-0.70726496,0.025237422,,,,
-0.3593349,-0.08780235,,,,
0.34274673,0.07893493,,,,
0.030292884,0.06655775,,,,
0.022057747,-0.0065112673,,,,
0.020140946,0.100162394,,,,
-0.24481541,-0.026447358,,,,
-0.23138472,0.09354248,,,,
-0.18888015,-0.017549,,,,
-0.1392158,0.037082158,,,,
-0.13307738,0.04163756,,,,
-0.13142832,0.14302185,,,,
-0.11883069,0.1420073,,,,
-0.12873009,0.03616233,,,,
-0.12502722,0.03488136,,,,
-0.13338055,-0.027439231,,,,
-0.15914454,0.310246,,,,
-0.21353535,-0.0073424894,,,,
-0.16134192,0.05781694,,,,
-0.16085128,-0.057358343,,,,
-0.19164257,-0.037092984,,,,
-0.13166869,-0.0183838,,,,
-0.14683495,-0.030736119,,,,
-0.15855104,0.06769237,,,,
-0.16957103,0.017853584,,,,
-0.22393656,0.1510323,,,,
-0.30948624,0.21718687,,,,
-0.32423887,-0.044402413,,,,
-0.15757598,-0.26474872,,,,
0.1239232,0.1128465,,,,
0.20618586,-0.0027271826,,,,
0.012039415,-0.08903707,,,,
0.008230363,-0.06462128,,,,
-0.0018521292,0.035157807,,,,
-0.025613718,-0.056215454,,,,
-0.1723829,0.013140004,,,,
-0.16103952,-0.03348085,,,,
-0.1925328,0.10041483,,,,
-0.16448072,-0.04352781,,,,
-0.19666311,0.24799763,,,,
-0.22411656,-0.09205572,,,,
-0.1709611,0.07000543,,,,
-0.12184742,-0.051523816,,,,
-0.1600662,-0.039732095,,,,
-0.17595953,0.098840095,,,,
-0.21569021,0.15277545,,,,
-0.227218,-0.026722703,,,,
-0.20951292,0.24360874,,,,
-0.20972456,-0.52301747,,,,
-0.13375965,0.10778264,,,,
-0.09218889,0.082122765,,,,
-0.14593919,-0.015537975,,,,
-0.15422165,-0.01724622,,,,
-0.17001525,-0.009712437,,,,
-0.21427801,0.008372273,,,,
-0.21643816,0.12815242,,,,
-0.2174498,0.072519615,,,,
0.17480229,-0.035655543,,,,
0.22045127,0.28624585,,,,
-0.0068170135,0.061704878,,,,
-0.035086006,0.052342445,,,,
-0.010530503,0.13520172,,,,
0.019838382,0.08618559,,,,
-0.16533905,0.042028304,,,,
-0.14387895,-0.018974507,,,,
-0.13002953,0.08401982,,,,
-0.16245377,0.07792853,,,,
-0.14311291,-0.8646064,,,,
-0.11276641,-0.16894485,,,,
-0.10299587,-0.13657844,,,,
-0.17188483,-0.17553557,,,,
-0.1759816,-0.12967366,,,,
-0.25037768,0.023508629,,,,
-0.19952808,-0.10760906,,,,
-0.26930818,0.34577087,,,,
-0.31308776,-0.39193824,,,,
-0.14422084,-0.028129138,,,,
-0.10536782,0.0523979,,,,
-0.08095366,0.06097328,,,,
-0.08714603,-0.072832674,,,,
-0.19303037,-0.09220403,,,,
-0.27829367,0.05688556,,,,
-0.17537743,-0.03981331,,,,
-0.07361513,0.21379325,,,,
-0.0010139855,0.0442481,,,,
-0.037802923,0.15826625,,,,
-0.031207392,0.11189219,,,,
0.02651645,-0.48260298,,,,
-0.0004877789,0.00437317,,,,
0.015573915,-0.011032151,,,,
0.022748966,-0.0676819,,,,
-0.020043306,-0.0003072734,,,,
-0.09722861,0.011904286,,,,
-0.10142071,0.0038005973,,,,
-0.025452752,0.020942014,,,,
-0.011235962,0.026853355,,,,
-0.04524865,0.14791723,,,,
-0.059231646,0.15397939,,,,
-0.09970872,-0.11316441,,,,
-0.09525385,-0.06259815,,,,
-0.15734068,0.07360347,,,,
-0.06811536,-0.0045760563,,,,
0.008320117,-0.11423359,,,,
0.026321404,-0.0145055335,,,,
0.047031447,-0.05504203,,,,
-0.022941269,-0.110213265,,,,
-0.25325793,0.1116793,,,,
-0.0065376926,0.055757817,,,,
-0.067087136,-0.0051835426,,,,
-0.019901827,0.090733275,,,,
0.01807941,0.01592587,,,,
0.10496147,0.07838862,,,,
-0.029094204,0.06736973,,,,
0.012286855,-0.12387745,,,,
0.035700135,0.029059572,,,,
0.003936027,-0.14442503,,,,
0.022757603,-0.34480587,,,,
0.019378377,0.14569233,,,,
0.015526287,0.00851221,,,,
-0.02411774,-0.09711971,,,,
-0.010379289,-0.07754033,,,,
0.016089555,-0.059767712,,,,
0.033066746,-0.120890476,,,,
-0.008636663,0.0068771415,,,,
0.025824467,-0.0999346,,,,
0.0028584132,0.06804145,,,,
-0.031530753,-0.0036472843,,,,
0.033788435,0.07102259,,,,
0.004771939,-0.19932698,,,,
-0.040139884,0.088032015,,,,
-0.016388673,-0.0009266569,,,,
0.02864603,-0.050803088,,,,
0.011658491,-0.018236807,,,,
-0.0067235106,-0.062945776,,,,
-0.008459142,-0.049540367,,,,
0.030896315,-0.031636544,,,,
0.028944204,-0.07367809,,,,
-0.019055925,0.15946184,,,,
-0.018765379,0.021731576,,,,
0.024744572,0.06294847,,,,
-0.00275336,0.13060196,,,,
-0.02038281,0.015520548,,,,
-0.02156078,-0.019480586,,,,
-0.010534619,0.0041596503,,,,
-0.0067143105,-0.62420946,,,,
-0.034572005,0.16786668,,,,
-0.028760243,0.08534586,,,,
-0.01941956,0.017823268,,,,
0.04075027,-0.122637585,,,,
0.106566414,0.0040228767,,,,
0.15001729,-0.014987386,,,,
0.1363973,-0.06646115,,,,
0.11045984,0.1431087,,,,
0.14104302,0.06163084,,,,
0.19643058,-0.12015181,,,,
0.04531587,0.009129832,,,,
-0.0691635,-0.074075155,,,,
0.037513398,0.044692077,,,,
0.062407643,0.053478956,,,,
-0.16808334,-0.026235824,,,,
-0.32153314,0.119398005,,,,
-0.1454962,0.13316806,,,,
0.21393205,0.17821524,,,,
0.22324745,-0.023636263,,,,
0.20862211,0.09949381,,,,
0.24589166,0.13444464,,,,
0.13228393,-0.022761125,,,,
0.08391775,0.58565664,,,,
0.0011307427,-0.026665103,,,,
0.0041014426,0.0051744487,,,,
0.030507455,-0.110029764,,,,
0.018619385,0.11198749,,,,
-0.0042619877,-0.002288861,,,,
-0.03359739,0.011834946,,,,
0.05548936,0.2318512,,,,
-0.49919298,-0.01136766,,,,
0.045352276,0.22585735,,,,
0.15792753,0.24057528,,,,
0.15395008,0.17412962,,,,
0.09184749,-0.08967401,,,,
0.12194522,0.12636077,,,,
0.110174544,-0.02810581,,,,
0.13996974,0.05388845,,,,
0.12609853,-0.13804628,,,,
0.096836984,-0.03959163,,,,
0.034143753,-0.043457165,,,,
0.06023934,-0.18794174,,,,
0.070837826,0.07484331,,,,
0.053445745,0.09191614,,,,
0.093491994,-0.012936607,,,,
0.18565269,-0.08098626,,,,
0.20401646,0.12366891,,,,
0.18109882,-0.02002792,,,,
0.16190396,0.052331068,,,,
0.19960979,-0.22646882,,,,
0.12046177,-0.22812317,,,,
0.082122564,-0.03755563,,,,
0.12699147,0.015093733,,,,
-0.030294973,-0.2121907,,,,
0.024459576,-0.06748472,,,,
-0.016103894,0.019123329,,,,
0.033276286,0.061477702,,,,
-0.22524935,-0.210958,,,,
-0.4447757,0.40703472,,,,
0.25385886,-0.05053564,,,,
-0.21574053,0.117154345,,,,
0.1316553,0.0812856,,,,
0.12671022,0.087423086,,,,
-0.08238188,0.08075072,,,,
-0.04369283,0.0043909745,,,,
0.051353488,0.11444899,,,,
-0.054340202,0.48767865,,,,
-0.050550807,-0.059719365,,,,
-0.05584948,0.12641437,,,,
0.015053864,0.050351553,,,,
0.04497445,-0.28664714,,,,
0.05123789,0.14705405,,,,
0.11397394,-0.00034572944,,,,
0.16667506,-0.05923764,,,,
0.12666938,0.064587,,,,
0.09725255,-0.02308875,,,,
0.27353367,0.018318437,,,,
0.42247492,-0.005515519,,,,
0.45875257,-0.14998491,,,,
0.27642542,0.055634458,,,,
0.2541024,0.027816352,,,,
-0.33209607,-0.04176827,,,,
-0.0010670254,-0.05810942,,,,
0.023505557,0.011059254,,,,
-0.09937313,0.16136415,,,,
-0.38486177,0.035073556,,,,
-0.23382303,0.009580185,,,,
-0.114056155,-0.0017076229,,,,
-0.3886978,0.08756853,,,,
-0.18699522,-0.054939635,,,,
-0.17011824,0.018443314,,,,
-0.2376944,0.011764861,,,,
-0.093929365,0.10771924,,,,
-0.045880646,0.12603982,,,,
-0.015987346,-0.0534724,,,,
-0.02096583,-0.10938254,,,,
-0.070138216,-0.028856613,,,,
-0.02420136,0.052704904,,,,
-0.009404626,-0.04424314,,,,
-0.0069884374,-0.14878082,,,,
0.06109229,0.030245196,,,,
0.08601979,-0.02054753,,,,
0.09874131,-0.069182456,,,,
0.15183356,0.001229387,,,,
0.20700875,-0.04205511,,,,
0.19117321,0.03382637,,,,
0.3039873,-0.051764622,,,,
0.37960505,0.047100957,,,,
0.35742578,-0.03978802,,,,
0.27313608,0.09027345,,,,
0.19756408,0.10064959,,,,
-0.0069833486,0.18292564,,,,
0.010131534,-0.11194588,,,,
-0.089414574,0.17167896,,,,
-0.2210888,0.050919596,,,,
-0.36657673,-0.07508495,,,,
-0.34627736,-0.004925388,,,,
-0.18883222,0.045236662,,,,
-0.12087627,-0.05350334,,,,
-0.0981724,-0.019076036,,,,
-0.062029466,0.062218357,,,,
-0.020870054,0.03955518,,,,
0.055136383,0.05039125,,,,
0.0373023,-0.11219946,,,,
0.0005474487,0.14690158,,,,
-0.016604496,-0.04368449,,,,
0.0036730366,0.11083293,,,,
0.05100293,0.17544453,,,,
0.05168279,-0.0043785926,,,,
0.018648868,0.04689496,,,,
-0.018587245,-0.04720188,,,,
0.028261412,-0.000127054,,,,
0.09615622,0.021112632,,,,
0.08309818,-0.028840465,,,,
0.06800804,-0.018880995,,,,
0.17483458,-0.056061756,,,,
0.3053966,-0.01379757,,,,
0.31565472,-0.10598318,,,,
0.20843077,-0.07027609,,,,
0.021895649,0.36452213,,,,
-0.18452021,0.021307686,,,,
0.2908115,-0.029668583,,,,
-0.20777406,0.03809156,,,,
-0.13601813,-0.0013716685,,,,
-0.14377773,-0.08053389,,,,
-0.18198082,0.017804177,,,,
-0.03164951,-0.15381858,,,,
0.006468276,0.08428916,,,,
-0.02960186,-0.119593866,,,,
0.032401986,0.008519634,,,,
0.062298577,-0.22322768,,,,
0.07131621,0.12605062,,,,
-0.0034571749,0.08028105,,,,
0.06341914,0.031286713,,,,
0.034095086,-0.0076250173,,,,
0.021263786,-0.058779206,,,,
-0.016325146,0.028084798,,,,
-0.002478791,-0.20498519,,,,
0.031841774,0.06316297,,,,
0.012544142,-0.011575979,,,,
0.049351417,-0.115031116,,,,
0.1366805,-0.06304886,,,,
0.19927482,-0.027999206,,,,
0.2506609,0.020234248,,,,
0.27304628,0.11760067,,,,
0.2658531,-0.061095107,,,,
0.11212317,0.013104912,,,,
-0.018866045,0.10835828,,,,
-0.27227095,0.13278747,,,,
0.04625052,-0.1869861,,,,
-0.15944377,0.023836654,,,,
-0.037514973,-0.068686835,,,,
-0.12476304,0.047119115,,,,
-0.08988428,0.04836123,,,,
-0.0169673,-0.026048807,,,,
0.04749623,0.026257524,,,,
0.033545762,0.06424663,,,,
0.05531153,0.3573561,,,,
0.013475513,0.2594541,,,,
-0.01541321,0.07441471,,,,
0.018541638,-0.09763804,,,,
0.034727056,0.38070002,,,,
0.04893244,-0.116808705,,,,
-0.022271777,-0.07591009,,,,
-0.019534761,0.04047848,,,,
-0.03786493,0.12418003,,,,
-0.024502147,-0.050795063,,,,
0.025025738,0.12398732,,,,
0.06303733,0.040478423,,,,
0.090256505,0.09082699,,,,
0.20203151,0.0130629875,,,,
0.26389137,0.017274637,,,,
0.22828521,0.1344317,,,,
0.20692252,0.121497065,,,,
0.088481374,-0.53628707,,,,
-0.76007587,0.08953228,,,,
-0.21234196,-0.075067714,,,,
-0.12252295,-0.072284825,,,,
0.0058646835,0.21025649,,,,
-0.030354587,0.103301294,,,,
-0.013248361,-0.059185654,,,,
0.068229534,0.054989584,,,,
0.12628725,-0.017937545,,,,
0.10357255,-0.0030949248,,,,
0.110558175,-0.0450108,,,,
0.10775859,0.14077169,,,,
0.05087205,0.05477611,,,,
0.022073563,-0.06702648,,,,
0.037790265,0.14570397,,,,
-0.054747105,0.10420903,,,,
-0.022500234,-0.011214753,,,,
-0.035187066,0.10071825,,,,
-0.10526357,-0.04981856,,,,
-0.09938066,-0.020804599,,,,
-0.052963138,0.12382798,,,,
-0.005506009,0.033934996,,,,
0.01721371,-0.03541717,,,,
0.0961479,0.104318164,,,,
0.19648032,0.0077768643,,,,
0.2827533,0.04022368,,,,
0.31453627,0.03699723,,,,
0.34634915,0.054597177,,,,
0.38962722,0.17649433,,,,
-0.13149855,0.010607807,,,,
-0.30523416,-0.025910264,,,,
-0.20243663,-0.12471362,,,,
-0.016372107,0.08071629,,,,
-0.007299907,0.030673347,,,,
-0.013627716,0.12958184,,,,
0.094227076,0.2835624,,,,
0.117403746,0.08902886,,,,
0.09489573,0.006378576,,,,
0.13743542,0.03178714,,,,
0.10393298,-0.11083734,,,,
0.07669204,0.013604111,,,,
0.08000763,0.078340076,,,,
0.023991974,-0.06321536,,,,
-0.017394539,0.048169684,,,,
-0.12564534,-0.06144059,,,,
-0.15260218,0.018978417,,,,
-0.14026797,-0.036388643,,,,
-0.07238267,-0.1003086,,,,
-0.0901589,-0.021152109,,,,
-0.0057863696,0.03126669,,,,
0.017843833,0.086735465,,,,
0.14372131,-0.012235048,,,,
0.20476183,0.14826475,,,,
0.27126217,0.059993647,,,,
0.37220535,-0.027186409,,,,
0.36284935,-0.18284117,,,,
-0.5249611,-0.062472533,,,,
-0.11723074,0.19477832,,,,
-0.20981058,-0.0015385527,,,,
-0.50958055,-0.120664336,,,,
-0.19722523,-0.0034349982,,,,
0.087361224,-0.11676245,,,,
-0.01940536,-0.06973225,,,,
0.04741807,-0.02322226,,,,
0.09754718,-0.028461525,,,,
0.1501402,0.16609582,,,,
0.17212269,0.10668425,,,,
0.14517137,0.07856679,,,,
0.11227389,-0.054935146,,,,
0.12208028,0.120002754,,,,
-0.0008851954,-0.097764365,,,,
0.0017897043,-0.04433461,,,,
-0.08119243,0.09649196,,,,
-0.16047837,-0.0925535,,,,
-0.13119219,0.13930105,,,,
-0.11404701,0.08345797,,,,
-0.079957984,0.10348328,,,,
-0.032627646,0.026312178,,,,
0.016645119,0.079061046,,,,
0.111028634,0.122462444,,,,
0.20549065,0.075171985,,,,
0.22238044,-0.25876328,,,,
0.27738816,0.1343678,,,,
0.3086064,-0.079522766,,,,
-0.11148195,-0.019344075,,,,
-0.09192592,-0.07346368,,,,
-0.29269886,-0.055239696,,,,
-0.28433517,0.06340173,,,,
-0.2775779,0.18323992,,,,
0.17273085,0.0738288,,,,
0.10965873,0.029442074,,,,
0.108013585,0.046928536,,,,
0.09944543,-0.05299796,,,,
0.16703163,-0.24606316,,,,
0.21815963,-0.036123935,,,,
0.13293801,-0.02719886,,,,
0.13672233,-0.11465751,,,,
0.1058746,-0.08684889,,,,
0.13083504,-0.018020708,,,,
0.13773614,0.024609046,,,,
0.017172882,0.12348058,,,,
-0.061831344,-0.09974649,,,,
-0.07951196,-0.04567815,,,,
-0.07768875,0.26266974,,,,
-0.092702575,-0.022327738,,,,
-0.023463443,0.07872877,,,,
0.067860566,0.0067918925,,,,
0.04483665,0.07746125,,,,
0.057143062,-0.13379303,,,,
0.24302432,0.117450856,,,,
0.3942051,-0.10143706,,,,
0.528637,-0.15914936,,,,
0.25383633,0.89259046,,,,
-0.113915324,-0.063578814,,,,
-0.24532135,0.104331605,,,,
-0.27168846,0.067796916,,,,
-0.091670856,-0.015028037,,,,
0.11902931,-0.022888044,,,,
-0.019373026,0.18891762,,,,
0.053219665,-0.10507827,,,,
0.092444964,0.17695524,,,,
0.18722479,-0.046464585,,,,
0.16086015,0.06001696,,,,
0.10862096,-0.03545331,,,,
0.07218133,0.11216999,,,,
0.10209404,0.030283308,,,,
0.14222272,-0.13992566,,,,
0.1333009,0.03553178,,,,
0.096170455,0.5329516,,,,
0.04586849,-0.018106103,,,,
0.050539564,-0.13030201,,,,
-0.042926,0.0071281176,,,,
-0.07881239,0.25332347,,,,
0.0032207516,0.06288967,,,,
0.06414787,0.18754616,,,,
-0.010412609,-0.11778868,,,,
0.054628767,0.059516013,,,,
0.112886325,-0.1051903,,,,
0.35159656,-0.043426767,,,,
0.29823053,-0.123880886,,,,
-0.08062535,0.029727628,,,,
-0.13084266,0.09776162,,,,
-0.2893992,-0.04826007,,,,
-0.28348324,-0.061766107,,,,
-0.2868986,0.09638319,,,,
-0.23156373,0.030904256,,,,
-0.04293133,-0.00232094,,,,
-0.051039312,0.0054293578,,,,
0.041185483,0.10645637,,,,
0.0785989,-0.019603834,,,,
0.02979088,-0.012687387,,,,
0.041455157,0.08593053,,,,
0.087340444,0.15278228,,,,
0.12835565,0.016555693,,,,
0.11811408,0.086031176,,,,
0.14200683,-0.023223717,,,,
0.18558331,0.12740798,,,,
0.11627924,-0.049883164,,,,
0.05086437,0.1380953,,,,
0.00667474,-0.09215445,,,,
0.0104510905,0.11461922,,,,
0.045956366,-0.074183956,,,,
-0.017493699,-0.06478043,,,,
0.0114492215,0.035260674,,,,
0.008053821,0.04335253,,,,
-0.04172484,0.099634245,,,,
-0.059557848,-0.10886609,,,,
-0.4513508,0.3057626,,,,
-0.37167022,0.055841327,,,,
0.3600533,0.068088196,,,,
-0.20456986,0.04206339,,,,
-0.3191267,0.0057832017,,,,
-0.45397982,0.033044085,,,,
-0.25228533,-0.102494255,,,,
-0.14895287,-0.0458067,,,,
-0.07464218,-0.029355763,,,,
-0.123848535,-0.070360236,,,,
-0.060953233,-0.014799138,,,,
-0.05118766,-0.12571014,,,,
0.034555573,-0.019273413,,,,
0.082697354,-0.0788917,,,,
0.056829058,0.10715329,,,,
0.13395157,0.173667,,,,
0.12948158,-0.018578291,,,,
0.15059112,0.030441405,,,,
0.1280986,0.028418127,,,,
0.06363542,-0.11216501,,,,
-0.0048498367,0.2154211,,,,
-0.03966098,0.07573553,,,,
-0.01353865,-0.2369638,,,,
-0.068337135,-0.0012019865,,,,
-0.04554445,0.06546355,,,,
-0.04107813,0.011463724,,,,
-0.099322736,0.09481725,,,,
0.06646551,-0.007578276,,,,
-0.39190093,0.0064809583,,,,
-0.37252355,-0.009303399,,,,
0.35683492,0.14246017,,,,
-0.1474735,0.0059313565,,,,
-0.20833433,0.3375375,,,,
0.12871364,0.09987073,,,,
-0.33141923,-0.26272023,,,,
-0.1599559,-0.099582925,,,,
-0.12232343,-0.003001569,,,,
-0.12595856,0.06942945,,,,
-0.07930209,0.14466919,,,,
-0.047841344,-0.052059066,,,,
-0.024610298,0.18097705,,,,
0.049751416,-0.084849715,,,,
0.1345344,0.08401866,,,,
0.16825694,0.025593534,,,,
0.1890813,0.17649207,,,,
0.14280277,0.5192092,,,,
0.09726675,0.08076299,,,,
0.048419446,-0.07591533,,,,
-0.025963757,-0.0081643835,,,,
-0.05114332,-0.18586096,,,,
-0.07098957,0.08192208,,,,
-0.06988478,0.19988617,,,,
-0.0031840033,-0.15499847,,,,
0.0012124884,0.07279968,,,,
-0.13272512,0.13426638,,,,
-0.023530519,0.24526514,,,,
-0.34727418,0.14282313,,,,
-0.40325126,0.0033030624,,,,
-0.262443,-0.020995695,,,,
-0.20202655,-0.08127841,,,,
-0.20996615,0.14488766,,,,
0.04832857,0.06716412,,,,
-0.26979667,0.1824193,,,,
-0.22060058,0.040978033,,,,
-0.119489424,0.04979912,,,,
-0.12619855,0.12174164,,,,
-0.060824703,0.020940471,,,,
0.011183613,0.136257,,,,
0.0823488,0.010436616,,,,
0.13472736,-0.007013307,,,,
0.14388867,0.05403494,,,,
0.12861659,-0.031840846,,,,
0.15410182,-0.6492868,,,,
0.06623655,-0.15956104,,,,
0.038498405,0.124248296,,,,
-0.016788775,0.23771363,,,,
-0.057543583,-0.24805312,,,,
-0.08432732,-0.014360864,,,,
-0.09672821,0.16132429,,,,
-0.11371331,-0.023123316,,,,
-0.07650119,-0.13121806,,,,
0.01886205,0.3037205,,,,
-0.015006212,0.00016060667,,,,
-0.10328123,0.09932851,,,,
-0.28942558,0.09686548,,,,
-0.3585105,0.08261753,,,,
-0.0046583163,-0.011040561,,,,
-0.2618998,0.09528505,,,,
-0.2287182,0.10290814,,,,
-0.037189115,0.5129346,,,,
-0.16216257,-0.041553028,,,,
-0.11324465,-0.04153017,,,,
-0.09623525,0.0142345,,,,
-0.035333317,-0.51577115,,,,
0.00034848586,0.08284943,,,,
0.024304295,-0.0025670466,,,,
0.049219098,0.10453629,,,,
0.10128053,0.15247254,,,,
0.15485106,0.05540301,,,,
0.1417774,0.025124146,,,,
0.08253945,0.018526826,,,,
0.058562547,-0.107371055,,,,
-0.007048693,0.070316896,,,,
-0.020497743,0.06528578,,,,
-0.06750579,0.1531362,,,,
-0.067456506,0.10899839,,,,
-0.040614806,0.0055081258,,,,
-0.07585242,0.023678698,,,,
-0.071610704,0.055789437,,,,
0.015494531,0.055304628,,,,
0.050479997,-0.08780554,,,,
-0.25298482,-0.086165756,,,,
-0.27670157,-0.07069693,,,,
-0.73092866,0.14029457,,,,
-0.1844384,-0.024129417,,,,
-0.17660436,0.13318855,,,,
-0.25005573,0.07546802,,,,
-0.16625595,-0.021356434,,,,
-0.16296235,-0.00971186,,,,
-0.04177639,-0.04038812,,,,
-0.03296176,-0.13806202,,,,
-0.049879335,-0.029360697,,,,
0.040930383,-0.0051319576,,,,
0.088821426,-0.02454106,,,,
0.06701197,0.007776074,,,,
0.09919847,-0.05441595,,,,
0.12638527,-0.06642703,,,,
0.11484903,-0.115076214,,,,
0.06895004,-0.035356853,,,,
0.037237972,0.0214851,,,,
-0.040742736,-0.020975608,,,,
-0.022398598,-0.10102601,,,,
-0.051746707,0.03398753,,,,
-0.05368596,0.02063676,,,,
-0.006831698,-0.003236639,,,,
-0.06767,-0.0869742,,,,
-0.019380007,-0.036889244,,,,
0.050747715,0.027994199,,,,
-0.02234463,-0.10277121,,,,
-0.21186511,0.0004462083,,,,
-0.07838994,0.14432138,,,,
-0.4485729,0.097088404,,,,
-0.0022874537,-0.011227679,,,,
-0.4437926,-0.019180853,,,,
-0.13159269,-0.13205992,,,,
-0.23703526,-0.020505056,,,,
-0.23084356,-0.0806459,,,,
-0.05249303,-0.14013971,,,,
-0.03570481,0.10917602,,,,
-0.029171491,0.01767918,,,,
0.04583993,0.059338532,,,,
0.06442502,-0.11838174,,,,
0.04505862,0.09000463,,,,
0.059932947,0.05807589,,,,
0.07118196,0.025840098,,,,
0.11320274,0.004208355,,,,
0.016905803,-0.038560614,,,,
0.01782978,0.014884758,,,,
-0.019426841,0.027750289,,,,
-0.07424951,-0.14638099,,,,
-0.058476467,-0.022303246,,,,
-0.044289544,-0.10916821,,,,
-0.018335678,0.034767658,,,,
-0.022410287,0.021575762,,,,
0.067477316,-0.07858008,,,,
0.03738424,-0.14445625,,,,
-0.032701023,0.12445833,,,,
-0.195565,-0.07875725,,,,
-0.19250132,-0.11645849,,,,
-0.41314307,-0.1412732,,,,
0.0016333078,-0.020310942,,,,
-0.33329713,-0.09551809,,,,
-0.17480038,-0.012786293,,,,
-0.2516958,-0.082631,,,,
-0.19365783,-0.14065976,,,,
-0.10954686,-0.07749919,,,,
0.011145515,-0.14640774,,,,
-0.014433106,-0.13653342,,,,
0.014539099,-0.0091422275,,,,
0.059701744,0.046342794,,,,
0.043194745,-0.060564946,,,,
-0.004985359,-0.09830774,,,,
-0.0036922228,-0.05785361,,,,
0.04265602,-0.017494153,,,,
0.024580022,-0.121128425,,,,
0.014885685,0.043349933,,,,
-0.009481338,-0.03422246,,,,
-0.06666856,-0.07285132,,,,
-0.02527994,-0.06375714,,,,
-0.023426566,-0.05197354,,,,
-0.027302418,0.10185163,,,,
0.044768408,0.0232906,,,,
0.076682664,0.002776837,,,,
0.049060773,0.028063597,,,,
-0.15435104,-0.10448601,,,,
-0.17356908,0.07381691,,,,
-0.16693297,-0.010374396,,,,
0.011801678,0.0025360873,,,,
-0.03473746,-0.041053537,,,,
-0.1180222,0.010181653,,,,
-0.16351785,-0.082663976,,,,
-0.24108624,-0.025348166,,,,
-0.15804155,-0.03345979,,,,
-0.10328303,-0.06720989,,,,
-0.075804874,-0.0888128,,,,
0.012469972,0.008347043,,,,
-0.006757261,-0.124789394,,,,
-0.025755739,0.0043112454,,,,
0.0018748178,0.022380164,,,,
-0.02620767,-0.005836962,,,,
-0.01595026,-0.12552367,,,,
0.031996127,0.09245822,,,,
-0.0039160526,-0.049389653,,,,
-0.016332457,0.02832954,,,,
-0.03139958,-0.07628109,,,,
-0.03381962,0.06404555,,,,
-0.04319234,-0.08817647,,,,
-0.046052415,-0.01574904,,,,
-0.0046721846,-0.083166204,,,,
0.049475737,-0.011103177,,,,
0.07500534,-0.04287442,,,,
0.17032252,-0.033607814,,,,
-0.1694386,-0.119502485,,,,
-0.27881664,-0.121292986,,,,
-0.6363313,-0.03383798,,,,
-0.11931705,-0.13011023,,,,
-0.05380445,0.01576753,,,,
-0.12612173,-0.04855454,,,,
-0.19328004,-0.04301851,,,,
-0.14095302,0.11865551,,,,
-0.063094966,0.04353554,,,,
-0.15017825,0.06817615,,,,
-0.117150895,-0.12187635,,,,
-0.009196195,0.019140916,,,,
-0.031079242,-0.021700513,,,,
0.006816794,-0.02382442,,,,
-0.009048868,0.020014547,,,,
-0.0032924358,-0.045196634,,,,
0.056841012,-0.0031591612,,,,
0.030906452,0.012713297,,,,
0.044590034,-0.047887795,,,,
0.041376617,0.059127733,,,,
0.012155902,-0.13197266,,,,
0.024062496,-0.101849444,,,,
-0.012778394,0.10458733,,,,
-0.008140331,-0.03990218,,,,
-0.0196736,-0.12110594,,,,
0.042169243,-0.08322303,,,,
0.09924703,-0.05574043,,,,
0.21104266,-0.10093012,,,,
0.27927074,-0.056959555,,,,
0.10142505,-0.11349994,,,,
0.08777652,-0.009242678,,,,
-0.14174867,-0.07852304,,,,
0.009909639,-0.14567353,,,,
0.035459686,0.027135989,,,,
-0.21188897,-0.0793303,,,,
-0.040923957,-0.12350052,,,,
-0.035868797,-0.11988804,,,,
-0.070356295,-0.074223995,,,,
-0.13807511,-0.106451206,,,,
-0.061287533,-0.08066234,,,,
0.0486918,-0.05248831,,,,
-0.011773959,-0.113784894,,,,
0.051533934,0.005528662,,,,
0.032135658,-0.05655662,,,,
0.061399728,-0.11281673,,,,
0.061282814,-0.08249319,,,,
0.059623197,-0.09266498,,,,
0.08704074,-0.11418136,,,,
0.049868207,-0.061513145,,,,
-0.0074295197,-0.05341594,,,,
0.062284254,-0.072604455,,,,
0.0685111,-0.00455956,,,,
0.077417165,-0.11959348,,,,
0.13371204,-0.041949376,,,,
0.17633617,0.12095579,,,,
0.3246942,-0.14542034,,,,
0.12828922,0.007030865,,,,
0.52632517,-0.044888575,,,,
-0.33986855,0.1089408,,,,
0.031949684,-0.101770915,,,,
0.01974025,0.0028170927,,,,
0.0018880836,0.06446723,,,,
-0.15162325,-0.058758017,,,,
-0.12355501,-0.057205345,,,,
-0.17595989,-0.016783247,,,,
-0.21296988,-0.12227167,,,,
-0.103071965,-0.051490292,,,,
-0.057812057,-0.066093266,,,,
0.0055620912,-0.028778708,,,,
0.022189628,-0.067659445,,,,
0.11471584,-0.043683913,,,,
0.06629733,0.0073587713,,,,
0.08722137,0.13614522,,,,
0.1040815,0.016184855,,,,
0.097386114,0.002237544,,,,
0.12774508,-0.09378721,,,,
0.14551543,-0.10855215,,,,
0.06515105,-0.039821357,,,,
0.18874934,-0.119013004,,,,
0.21102826,-0.12279185,,,,
0.19229375,0.01482884,,,,
-0.12854633,-0.13073204,,,,
-0.0909044,-0.08123054,,,,
0.103965804,-0.121627755,,,,
-0.30614316,-0.086300954,,,,
-0.33057666,0.055857938,,,,
-0.30727002,-0.07186621,,,,
0.022984557,-0.0053033014,,,,
0.024236612,-0.13112193,,,,
-0.030757919,0.02444887,,,,
-0.018756121,-0.072921544,,,,
0.11502767,-0.052183043,,,,
-0.25778338,-0.05882879,,,,
-0.27550253,0.0035136836,,,,
-0.02814306,-0.019878091,,,,
-0.03611469,0.018980177,,,,
-0.11987612,0.033941507,,,,
-0.02311518,-0.107732855,,,,
0.17912443,-0.002487041,,,,
0.16103254,-0.051507324,,,,
0.14348847,-0.0038557644,,,,
0.17892355,-0.010229878,,,,
0.19345684,-0.06329001,,,,
0.24257566,-0.09101883,,,,
0.24282067,-0.034288753,,,,
0.25137687,-0.04912181,,,,
0.2509399,0.027455717,,,,
0.13582793,-0.12144121,,,,
0.0075394176,-0.027075542,,,,
0.029817991,-0.06515884,,,,
0.19612643,-0.054315817,,,,
0.3295807,-0.007102488,,,,
0.386949,-0.08433011,,,,
-0.19239539,-0.02659179,,,,
-0.32692358,0.015794102,,,,
-0.026853219,-0.0109397955,,,,
0.0081162285,-0.039176203,,,,
0.020920746,0.061866187,,,,
0.009472388,-0.12004681,,,,
0.16918296,0.0011885293,,,,
0.20012362,0.0554469,,,,
-0.22040887,-0.1413108,,,,
-0.041521568,0.08874778,,,,
-0.019925019,0.010641877,,,,
-0.07057927,-0.12677507,,,,
-0.13413508,0.0307666,,,,
-0.040963013,-0.096358895,,,,
0.070666954,-0.148405,,,,
0.12563542,-0.10032052,,,,
0.054906975,-0.13453825,,,,
0.00862018,-0.0021190022,,,,
-0.037937887,-0.021399958,,,,
-0.06738617,-0.03271803,,,,
0.1447218,-0.14709239,,,,
0.11649273,-0.06086971,,,,
-0.21845572,0.09522062,,,,
-0.104482956,0.02168491,,,,
-0.068954006,-0.04667752,,,,
-0.2597728,0.036727592,,,,
-0.25084832,-0.060562883,,,,
-0.2221625,-0.10742026,,,,
-0.105706885,0.11081314,,,,
0.0056821536,-0.044142544,,,,
-0.028732888,-0.2833576,,,,
0.0124740265,-0.0026226225,,,,
-0.0078645265,0.13456526,,,,
-0.028164687,0.077629924,,,,
-0.00887984,0.042264488,,,,
-0.08964752,-0.061975952,,,,
-0.10889892,0.13340203,,,,
-0.15696107,0.09433789,,,,
-0.18333128,0.04634174,,,,
-0.24940462,-0.06718747,,,,
-0.0725571,0.017952096,,,,
-0.15832707,-0.016975751,,,,
0.050782975,-0.060377646,,,,
0.07571316,-0.22776602,,,,
-0.13977447,0.010942742,,,,
-0.12564833,-0.043414187,,,,
-0.07979193,-0.052683998,,,,
-0.09612391,0.095350355,,,,
-0.21966921,-0.004510789,,,,
-0.20798983,-0.11032394,,,,
-0.02657411,-0.052341983,,,,
-0.36389208,-0.016609244,,,,
-0.2559942,0.013519719,,,,
-0.28703636,0.08055581,,,,
-0.318746,0.13163745,,,,
0.035176475,0.0115387775,,,,
0.023835788,0.01613328,,,,
0.004354392,0.15689874,,,,
0.012650928,0.0011237508,,,,
-0.035543196,-0.066590615,,,,
0.00083229376,0.05665073,,,,
-0.009794329,-0.0026152292,,,,
-0.0035359734,-0.06309407,,,,
-0.010260105,0.02009296,,,,
-0.00520756,-0.014628536,,,,
-0.00037430014,0.1976239,,,,
0.022735005,-0.020177003,,,,
-0.018379522,0.01895334,,,,
0.03151496,0.019228099,,,,
0.023296604,-0.08739911,,,,
0.022838956,0.12208014,,,,
-0.012692182,0.14772506,,,,
0.053755276,0.06158778,,,,
0.019438824,0.06040739,,,,
-0.0081467405,-0.042483337,,,,
-0.009412992,-0.18906663,,,,
0.015462135,-0.08375426,,,,
-0.02527587,0.057538588,,,,
0.020490073,0.062421538,,,,
0.021927107,-0.13002698,,,,
0.02922919,-0.08703371,,,,
0.01722456,-0.46508566,,,,
0.0014465366,0.058239225,,,,
-0.0019746083,0.39274174,,,,
-0.0073391926,-0.021167096,,,,
-0.025726877,0.091398165,,,,
-0.014686291,-0.011681888,,,,
0.026656812,-0.06487487,,,,
0.013412319,0.058637016,,,,
-0.034518998,-0.009122734,,,,
-0.004317194,-0.17779826,,,,
0.027953243,0.110425584,,,,
-0.02094707,-0.09931255,,,,
-0.03480275,0.06408951,,,,
-0.088930465,-0.22480576,,,,
-0.038875807,0.08729769,,,,
-0.040165626,0.1582622,,,,
-0.036309995,-0.060903154,,,,
-0.054669503,0.022593977,,,,
-0.032374904,-0.042775456,,,,
-0.048167095,-0.037323684,,,,
-0.035814065,-0.10861768,,,,
-0.04220535,0.018498626,,,,
-0.029234024,0.2544107,,,,
-0.043622855,-0.24175508,,,,
-0.079680495,0.11711411,,,,
-0.08131198,0.12909593,,,,
-0.060408458,0.030918563,,,,
-0.08480599,0.026002979,,,,
-0.016184263,-0.052753992,,,,
-0.028752323,-0.029089835,,,,
-0.002076264,-0.16229104,,,,
0.024622535,0.09453546,,,,
0.0012357959,-0.30122483,,,,
-0.021665089,0.02821569,,,,
0.017447472,0.047574632,,,,
-0.026377415,-0.12936874,,,,
-0.024750613,0.04389797,,,,
-0.034213558,0.06628165,,,,
-0.027095849,-0.010652444,,,,
-0.0662039,0.14923929,,,,
-0.04552187,0.47387588,,,,
-0.061664037,-0.056680705,,,,
-0.05388068,0.063028954,,,,
-0.087768,-0.10704355,,,,
-0.06410229,0.26921472,,,,
-0.041230943,-0.03892967,,,,
-0.058130957,-0.041191258,,,,
-0.08299865,0.071056664,,,,
-0.0926384,-0.16789015,,,,
-0.0542608,0.30172312,,,,
-0.04072826,0.14580858,,,,
-0.030904084,-0.047618605,,,,
-0.05111014,0.06232079,,,,
-0.031979043,0.1328837,,,,
-0.054455258,-0.079239145,,,,
-0.092105515,0.1321544,,,,
-0.058905207,0.05247636,,,,
-0.030527571,-0.52763647,,,,
-0.07619134,0.05682253,,,,
-0.017062282,0.1478734,,,,
-0.019641306,-0.09054049,,,,
0.0027923586,0.41795823,,,,
-0.0041393256,0.0041205976,,,,
-0.027392512,-0.031098172,,,,
0.031334497,0.096787915,,,,
-0.023128517,-0.100949116,,,,
-0.035248235,0.023940096,,,,
-0.08557372,0.13648258,,,,
-0.08975983,0.09242776,,,,
-0.028514834,-0.02034975,,,,
-0.044215314,0.024184687,,,,
-0.08735249,0.055062786,,,,
-0.046046827,0.1159941,,,,
-0.038435467,-0.045269005,,,,
0.07706483,0.10239366,,,,
0.052053254,-0.021431886,,,,
-0.07297607,0.004625124,,,,
-0.061957177,0.10701808,,,,
-0.03319881,-0.05168719,,,,
-0.028457372,-0.023848927,,,,
-0.07525531,0.019038444,,,,
-0.028200844,0.14724952,,,,
-0.08504633,0.11051058,,,,
-0.08788564,0.121292025,,,,
-0.06369606,-0.028701577,,,,
-0.043555442,-0.004404735,,,,
-0.06797939,-0.05618586,,,,
-0.007069984,0.031673856,,,,
-0.019253038,0.13112749,,,,
0.014621135,-0.0294,,,,
-0.0033513948,0.023600101,,,,
0.016358793,-0.005377845,,,,
-0.03443776,-0.036715705,,,,
-0.059567444,-0.064453065,,,,
-0.032160576,-0.07107452,,,,
-0.0890314,0.027276918,,,,
0.022055164,0.09040178,,,,
-0.064013235,0.09074015,,,,
0.0424342,0.049696676,,,,
0.06067309,0.012822444,,,,
0.07218758,0.0793641,,,,
0.080939315,-0.094436854,,,,
0.05060447,0.17212634,,,,
0.07311374,0.101179406,,,,
0.02691154,0.03789404,,,,
-0.03367339,-0.089397095,,,,
-0.07726611,0.017587833,,,,
-0.04559639,0.032955695,,,,
-0.08747859,-0.029539559,,,,
-0.0935514,0.0033190907,,,,
-0.04888417,-0.13540745,,,,
-0.08974634,0.08017151,,,,
-0.043639563,0.048163917,,,,
-0.08713501,0.054996856,,,,
-0.040690638,0.11198496,,,,
-0.05830662,0.08122272,,,,
-0.030431816,-0.0014420054,,,,
-0.018054623,0.0716774,,,,
-0.02508436,0.05215051,,,,
0.028373912,0.0038239874,,,,
-0.05903292,0.0671651,,,,
-0.024778454,-0.073729634,,,,
0.070394546,0.031638052,,,,
0.032634944,0.11253681,,,,
0.07379879,-0.01950709,,,,
0.05150514,0.11724214,,,,
0.03187932,0.012553459,,,,
0.035478238,0.10198097,,,,
0.06960003,0.036523107,,,,
0.03694017,-0.06299506,,,,
0.053202074,-0.05794847,,,,
0.028215008,0.05013275,,,,
0.072311305,-0.056981035,,,,
-0.05933518,-0.044281483,,,,
-0.0689307,0.08286683,,,,
0.031024996,-0.018057052,,,,
-0.029925583,0.11033437,,,,
0.04141934,-0.1136321,,,,
0.02524632,-0.0054040384,,,,
0.038841996,0.022887046,,,,
-0.074203566,0.006363757,,,,
-0.060009044,0.39977568,,,,
-0.06546898,-0.14158803,,,,
0.050445482,0.071156874,,,,
0.027993502,-0.067504846,,,,
0.054041266,0.042894866,,,,
0.0133713065,-0.028044418,,,,
-0.018760184,0.17144653,,,,
-0.08875589,-0.048483156,,,,
-0.05852879,0.13338459,,,,
-0.06161238,-0.16287869,,,,
-0.059190713,0.003662031,,,,
-0.086630665,-0.010242936,,,,
-0.0324769,-0.042134743,,,,
0.057830814,-0.0007021731,,,,
-0.07259193,-0.050209466,,,,
0.0721307,0.041772816,,,,
0.02484871,-0.0069134883,,,,
0.02861355,0.006864161,,,,
0.031239608,-0.06238618,,,,
-0.063753285,0.08070967,,,,
-0.043464616,0.11499622,,,,
0.048440237,0.030060926,,,,
0.09062434,0.01135764,,,,
0.07503381,0.02587014,,,,
0.042530138,0.11863996,,,,
0.031956434,0.05111153,,,,
0.064780876,0.052035566,,,,
0.07447608,-0.36012843,,,,
-0.093660064,-0.030621707,,,,
0.05842135,-0.11037667,,,,
0.08131993,0.023547098,,,,
0.05564948,-0.103531726,,,,
0.046596244,0.12044951,,,,
0.011188069,-0.053962294,,,,
-0.04745102,-0.011901159,,,,
-0.027941886,0.23563203,,,,
-0.06318602,-0.2744753,,,,
-0.07406925,0.037348714,,,,
-0.042848207,0.057302944,,,,
-0.0440837,0.031938095,,,,
-0.03698868,-0.047841363,,,,
-0.03251582,-0.10971087,,,,
-0.026497573,0.06606022,,,,
-0.06991961,0.13003524,,,,
-0.075718924,0.3074654,,,,
-0.03486925,0.10923324,,,,
-0.07835912,-0.031607833,,,,
-0.025133295,0.030475365,,,,
-0.076532274,-0.50597084,,,,
-0.04518607,0.12593856,,,,
-0.056369,0.0900947,,,,
-0.093432605,-0.04482988,,,,
0.059987616,0.043382935,,,,
-0.085211046,-0.06755615,,,,
-0.026951486,0.027246498,,,,
-0.082588404,-0.07762487,,,,
-0.056273796,0.113579944,,,,
0.089931756,-0.0043258597,,,,
0.08521958,0.062980324,,,,
0.09523684,0.093009345,,,,
0.0617042,-0.005027889,,,,
0.057154905,-0.02946291,,,,
-0.06044943,-0.036411345,,,,
-0.08818829,0.04270032,,,,
-0.089542784,-0.054621655,,,,
-0.07522567,-0.006905594,,,,
-0.069495074,-0.02350232,,,,
-0.077303715,0.039055843,,,,
-0.07731207,-0.10362884,,,,
-0.035651766,-0.015745152,,,,
-0.057743743,0.08922848,,,,
-0.042456064,0.043598026,,,,
-0.0673931,0.055480987,,,,
-0.026922077,-0.15153083,,,,
-0.08396003,0.017535774,,,,
-0.041803632,0.102247335,,,,
-0.07631597,0.11141166,,,,
-0.09019376,-0.18616883,,,,
-0.056006867,0.05758594,,,,
-0.032385137,0.45690805,,,,
-0.09454516,-0.12847213,,,,
-0.07196535,0.03092499,,,,
-0.046224657,0.10456107,,,,
-0.07182513,-0.020535385,,,,
-0.059466008,0.058268156,,,,
0.029054454,0.088687435,,,,
0.048833854,0.02851425,,,,
0.032217838,0.09513948,,,,
0.061589792,0.13232614,,,,
-0.069882385,0.111443855,,,,
-0.029270997,0.029091101,,,,
-0.06368706,-0.036726516,,,,
-0.05722357,0.054319575,,,,
-0.052512094,-0.07342991,,,,
-0.024780292,0.008164251,,,,
-0.03464167,-0.070000544,,,,
-0.07368737,-0.08255891,,,,
-0.05357225,-0.09223854,,,,
-0.051828332,0.015623879,,,,
-0.05599159,-0.0066679255,,,,
-0.073805526,0.071133465,,,,
-0.0848379,-0.13174367,,,,
-0.08470673,0.08339649,,,,
-0.046328925,-0.063124195,,,,
-0.08777732,0.027074983,,,,
-0.047173172,0.07574251,,,,
-0.055468418,0.08989879,,,,
-0.0538748,0.043475263,,,,
-0.081234656,0.03214198,,,,
-0.0581227,0.011796989,,,,
-0.09424812,-0.05823707,,,,
-0.07526904,0.105219156,,,,
-0.06343277,-0.08680752,,,,
0.040435422,-0.024237692,,,,
0.06816118,-0.08608236,,,,
0.03617444,-0.5624251,,,,
0.09073138,0.055388413,,,,
-0.07566505,0.27884483,,,,
-0.064457685,-0.095433,,,,
-0.0571563,0.14165293,,,,
-0.050304264,-0.017631486,,,,
-0.09017332,-0.046968684,,,,
-0.068935215,0.06602327,,,,
-0.032135036,-0.041711576,,,,
-0.037771817,-0.11263762,,,,
-0.07405271,0.33901638,,,,
-0.066767626,0.013584575,,,,
-0.062045246,0.05584571,,,,
-0.054404914,-0.017592944,,,,
-0.05899541,0.06091341,,,,
-0.060922503,-0.048766132,,,,
-0.028443886,0.11801601,,,,
-0.048267502,0.07045629,,,,
-0.048220143,0.034247417,,,,
-0.06423585,0.11851889,,,,
-0.080828175,-0.27259198,,,,
-0.04294919,-0.081252396,,,,
-0.07529798,0.7286286,,,,
-0.03595591,-0.14010657,,,,
-0.042298537,0.03487419,,,,
0.060223587,-0.0012353933,,,,
0.08132784,0.025817996,,,,
0.0806905,-0.019609487,,,,
0.03898819,-0.006824389,,,,
0.020578517,0.0044758697,,,,
-0.052325986,0.008316273,,,,
-0.07903019,-0.028007498,,,,
-0.0757675,-0.26243314,,,,
-0.030038891,-0.12837224,,,,
-0.06646719,-0.088728294,,,,
-0.04936825,-0.08602948,,,,
-0.06286585,0.055815186,,,,
-0.077068835,0.021537777,,,,
-0.031378962,0.04441614,,,,
-0.04863833,0.030408194,,,,
-0.060319956,0.4032378,,,,
-0.07566813,1.2138131,,,,
-0.0385404,0.021545172,,,,
-0.059248466,0.03745983,,,,
-0.038507346,0.76794887,,,,
-0.075039364,-0.0065154787,,,,
-0.036116287,-0.16359738,,,,
-0.068090074,0.26375377,,,,
-0.075188965,-0.07192341,,,,
-0.06864133,0.30149382,,,,
-0.05667289,-0.031762507,,,,
-0.07725899,0.03724647,,,,
-0.055537473,0.011927279,,,,
-0.091836296,0.026820965,,,,
0.07496849,0.024638494,,,,
0.07158874,0.00038530325,,,,
0.0871765,0.115101606,,,,
-0.04733447,-0.26197708,,,,
-0.045890953,0.07583703,,,,
-0.04398958,-0.006334847,,,,
-0.06738554,-0.019180825,,,,
-0.030915132,0.6019448,,,,
-0.03398531,0.09441777,,,,
-0.06650953,0.0520096,,,,
-0.08636445,0.0022498374,,,,
-0.08524992,-0.016032817,,,,
-0.07689728,-0.025498511,,,,
-0.026362864,-0.049252853,,,,
-0.06351622,0.08580189,,,,
-0.032151785,-0.007896654,,,,
-0.051574916,0.05526903,,,,
-0.094834514,-0.036787286,,,,
-0.084029004,0.059256047,,,,
-0.081572354,0.042811744,,,,
-0.07554026,0.031058528,,,,
-0.025645258,0.09051426,,,,
-0.024916286,0.13612834,,,,
-0.07398044,-0.15835737,,,,
-0.05594689,-0.011432179,,,,
-0.025296094,0.13035113,,,,
-0.062318034,0.042686496,,,,
-0.08682252,0.066537715,,,,
-0.051986814,0.08493254,,,,
-0.033659205,0.06461455,,,,
0.065712884,0.03420923,,,,
-0.014898777,-0.04160543,,,,
-0.04547953,-0.017064042,,,,
-0.04238389,-0.044178322,,,,
-0.03612269,0.17368533,,,,
-0.03945071,0.01664389,,,,
-0.08064355,0.091373496,,,,
-0.05193888,-0.031036558,,,,
-0.031900287,-0.11313481,,,,
-0.08196242,0.05668178,,,,
-0.044736966,0.12547159,,,,
-0.08345909,-0.009761765,,,,
-0.068301596,-0.021683367,,,,
-0.05883293,0.06673578,,,,
-0.049602102,0.04318265,,,,
0.033891108,-0.03993569,,,,
-0.06062518,0.03492321,,,,
-0.08421278,0.026861118,,,,
-0.06895146,0.076223716,,,,
-0.095390625,-0.080787055,,,,
-0.053100877,0.13823728,,,,
-0.061234415,-0.018843247,,,,
-0.07208705,-0.05092971,,,,
-0.07824842,0.122101165,,,,
-0.094710395,0.034177065,,,,
-0.024932195,0.059618887,,,,
-0.07181346,0.08657628,,,,
-0.05640712,-0.08587107,,,,
0.031569533,-0.11141479,,,,
0.0037283613,0.0828953,,,,
0.020298094,-0.046585266,,,,
-0.02589999,0.09055008,,,,
-0.06581097,0.0010250317,,,,
-0.07021616,0.10212816,,,,
-0.042771682,0.32376426,,,,
-0.038703762,-0.071681626,,,,
-0.026887003,-0.052819192,,,,
-0.09394387,-0.09431752,,,,
-0.09150421,0.027319496,,,,
-0.089948036,-0.050514936,,,,
-0.086670995,0.14638291,,,,
-0.0829002,0.061811473,,,,
0.031185357,-0.082590245,,,,
0.041430682,0.026554665,,,,
-0.04508611,0.21673605,,,,
-0.07004773,-0.030319776,,,,
-0.092925735,0.39509416,,,,
-0.03974006,0.07350419,,,,
-0.03668196,0.07106129,,,,
-0.092519,-0.07113136,,,,
-0.02451088,0.0018038856,,,,
-0.084312186,0.03670908,,,,
-0.05965128,-0.101396814,,,,
-0.041679736,0.07632938,,,,
-0.071520634,0.0811762,,,,
-0.030497385,0.018252278,,,,
0.08240857,-0.10088043,,,,
0.042146258,-0.35373807,,,,
-0.0076145274,0.030932434,,,,
-0.03208251,0.011899375,,,,
-0.03252247,0.12175535,,,,
-0.03297646,-0.07180781,,,,
-0.04540291,-0.113705255,,,,
-0.055452537,-0.14229284,,,,
-0.06974459,-0.19311127,,,,
-0.0327966,0.15925303,,,,
-0.05501003,-0.21755387,,,,
-0.0283767,-0.1413258,,,,
-0.091102354,-0.082357466,,,,
-0.061128642,0.10991303,,,,
0.024267318,-0.02968931,,,,
-0.0834681,0.1267603,,,,
-0.07232108,-0.046422556,,,,
-0.06774527,0.03980545,,,,
-0.08924971,-0.109833516,,,,
-0.07362342,-0.0095193945,,,,
-0.041713648,0.14198688,,,,
-0.059486404,-0.012012366,,,,
-0.07268995,0.04238607,,,,
-0.07428444,-0.15729775,,,,
-0.05153093,0.1144313,,,,
-0.025820447,-0.017664617,,,,
-0.087000005,0.096331455,,,,
-0.052944887,0.08539256,,,,
0.07964716,0.6206166,,,,
0.06662119,0.45677486,,,,
-0.05332092,0.011746302,,,,
-0.0029072168,-0.1282548,,,,
-0.07229314,0.3474641,,,,
-0.088815585,-0.10512765,,,,
-0.08034516,-0.079007484,,,,
-0.053045902,-0.032931797,,,,
-0.08834634,0.25528732,,,,
-0.077524565,-0.2715992,,,,
-0.025196102,0.10829613,,,,
-0.050230633,-0.022312526,,,,
-0.062458653,0.02874731,,,,
-0.083764374,0.08174741,,,,
-0.036662653,-0.08184885,,,,
-0.061934106,-0.04979476,,,,
-0.027226124,-0.04074608,,,,
-0.028524505,-0.50873256,,,,
-0.040838808,0.06382051,,,,
-0.035670817,-0.00048808954,,,,
-0.08199277,0.027193774,,,,
-0.08454695,0.62551284,,,,
-0.03011132,-0.06413765,,,,
-0.029611614,-0.03987946,,,,
-0.091562726,0.003429295,,,,
-0.03408061,-0.03739891,,,,
-0.03998372,0.018782815,,,,
0.06893582,-0.00939692,,,,
0.082492575,0.06452902,,,,
0.069785126,0.020508062,,,,
-0.0016238478,0.1109655,,,,
-0.033735998,0.09690276,,,,
-0.0646917,0.005670094,,,,
0.08145885,-0.086596824,,,,
0.07662852,0.11978593,,,,
0.059549056,0.06226218,,,,
-0.0808769,-0.13931835,,,,
-0.088672765,0.1710577,,,,
-0.045078497,0.17793277,,,,
-0.09397492,0.06206787,,,,
-0.08566188,0.04557593,,,,
-0.02878847,0.039956287,,,,
-0.077612534,0.16575049,,,,
-0.067365974,0.03776721,,,,
-0.02770875,0.017243205,,,,
-0.043505006,-0.12006128,,,,
-0.032947473,0.034462605,,,,
-0.046780746,0.11378616,,,,
-0.05207153,0.12260606,,,,
-0.067418374,0.11283546,,,,
-0.06794356,0.20997356,,,,
-0.04152965,-0.111847416,,,,
-0.02473216,-0.09327149,,,,
-0.02435582,0.13049628,,,,
0.079968676,-0.04315933,,,,
0.092772335,0.096935906,,,,
0.06381544,-0.04442827,,,,
0.06255207,-0.009997259,,,,
-0.05027447,0.06746414,,,,
-0.05950403,-0.018418305,,,,
-0.03572839,-0.011616509,,,,
0.049198776,-0.08714676,,,,
0.08511695,0.19571865,,,,
0.07703977,0.044632647,,,,
0.04040524,-0.06801387,,,,
0.061384067,-0.021506382,,,,
-0.07134698,0.088539295,,,,
-0.036010996,0.06485795,,,,
-0.0781159,0.109931946,,,,
-0.0736843,0.07775685,,,,
-0.08811655,-0.007024415,,,,
-0.038952164,-0.031066874,,,,
-0.033965874,0.06888624,,,,
-0.09170104,-0.005906517,,,,
-0.027231168,0.103427626,,,,
-0.06590817,-0.019758103,,,,
-0.02998449,0.10469755,,,,
-0.0917462,0.056323607,,,,
-0.030492969,0.24891001,,,,
-0.04333241,0.014454518,,,,
0.051022906,-0.11975706,,,,
0.069379725,0.032389514,,,,
0.055294197,0.0066000703,,,,
0.079776056,-0.010605585,,,,
0.04632007,0.0016573361,,,,
0.0015562748,0.09125772,,,,
0.016364127,0.018358225,,,,
-0.021655576,0.048620153,,,,
0.09283226,-0.13702972,,,,
0.03275255,0.069259465,,,,
0.073797844,0.37711897,,,,
0.05243854,-0.054082394,,,,
0.06278629,0.1360932,,,,
0.072010264,-0.14147262,,,,
0.076472476,-0.105002135,,,,
-0.05779754,0.06945393,,,,
-0.028258428,-0.09312043,,,,
-0.06532438,-0.0025816052,,,,
-0.02980677,-0.031288125,,,,
-0.078903235,0.02906089,,,,
-0.037628796,-0.11832496,,,,
-0.03477395,-0.21649301,,,,
-0.030837588,0.059854988,,,,
-0.09140035,0.050729237,,,,
-0.06479432,0.015010933,,,,
-0.027233098,0.05289499,,,,
-0.034280628,-0.029455503,,,,
0.03101106,-0.12435413,,,,
0.049103886,-0.048389483,,,,
0.08530936,0.1617609,,,,
0.05345207,-0.40728757,,,,
0.08860607,-0.08936271,,,,
0.031760428,-0.12195965,,,,
-0.018228166,0.064155675,,,,
-0.0104381405,-0.09642333,,,,
-0.019728588,0.080257036,,,,
0.06749894,0.042539895,,,,
0.058162536,-0.08148823,,,,
0.029057328,-0.078564085,,,,
0.08443614,0.13000281,,,,
0.039125104,0.13465601,,,,
0.050015267,-0.022947965,,,,
0.064892575,-0.027761856,,,,
0.08505163,-0.06495188,,,,
0.031323697,0.09313645,,,,
-0.052022427,0.12622468,,,,
-0.06474926,0.109755225,,,,
-0.04550793,0.033949737,,,,
-0.056031674,0.47795206,,,,
-0.07511979,-0.17785296,,,,
-0.043513544,-0.100605145,,,,
-0.048958503,-0.082249165,,,,
-0.031795997,0.3374046,,,,
-0.053363964,-0.02054883,,,,
0.057844877,-0.09509435,,,,
0.0651892,-0.05265634,,,,
0.048229374,0.37997815,,,,
0.04121213,-0.6869997,,,,
0.08048339,0.15002874,,,,
0.025192175,-0.03186351,,,,
0.068573974,0.057547137,,,,
-0.0029782483,0.13571559,,,,
0.013275053,-0.13238998,,,,
0.0076515125,0.0064924452,,,,
0.04197659,-0.12802622,,,,
0.024812382,0.4908265,,,,
0.09259377,0.09451048,,,,
0.04780159,0.052500457,,,,
0.07824388,-0.006607206,,,,
0.061097454,0.2756263,,,,
0.035991192,0.068313085,,,,
0.046638384,0.0976999,,,,
0.09134783,0.05466686,,,,
-0.043535896,0.019338386,,,,
-0.08890741,0.031322066,,,,
-0.08077323,-0.0541912,,,,
-0.08850482,0.017703172,,,,
-0.08791349,0.043432858,,,,
-0.027368434,0.08912052,,,,
-0.070177056,0.16044001,,,,
-0.035836536,-0.051391095,,,,
-0.08353772,-0.12689723,,,,
0.081627674,0.059176434,,,,
0.029919855,0.14125429,,,,
0.082592405,-0.063700356,,,,
0.09020606,0.00063130725,,,,
0.0891874,0.05363608,,,,
0.054045133,-0.028639708,,,,
0.041024942,0.100086056,,,,
-0.0110793505,0.1329921,,,,
-0.0057045864,0.18883528,,,,
0.025433602,0.12867114,,,,
0.04820201,-0.007759361,,,,
0.07484566,-0.08485085,,,,
0.08096842,0.046145674,,,,
0.055196464,0.052418444,,,,
0.03860309,0.16287416,,,,
0.04707911,-0.0023069098,,,,
0.09497894,0.3462609,,,,
0.049556825,-0.08703721,,,,
0.05438207,-0.9492848,,,,
0.043980207,0.14259799,,,,
-0.043173056,-0.037677094,,,,
-0.069627844,0.16470063,,,,
-0.060897455,-0.0634539,,,,
-0.046199203,0.0048910384,,,,
-0.08577849,0.0027533087,,,,
-0.08435867,-0.0784152,,,,
-0.087791406,-0.023508037,,,,
-0.06870154,-0.13800378,,,,
0.07269387,0.03811527,,,,
0.051362935,0.1288132,,,,
0.0283059,0.024284901,,,,
0.046359926,-0.05380751,,,,
0.031638518,0.14051889,,,,
0.051911663,0.10522858,,,,
0.08607446,0.13148858,,,,
0.03271043,0.176263,,,,
0.0044748443,0.058789384,,,,
-0.026931096,-0.111429095,,,,
-0.086521536,-0.09317434,,,,
-0.043726224,-0.023639746,,,,
0.05888467,0.013508092,,,,
0.046299655,0.11044809,,,,
0.074070506,0.009798704,,,,
0.05072987,0.046430018,,,,
-0.05895775,0.10943025,,,,
-0.09024528,0.019670933,,,,
-0.066218145,-0.18003348,,,,
-0.0591157,-0.028826896,,,,
-0.046346936,-0.029087212,,,,
-0.042119987,0.21917386,,,,
-0.034669027,-0.058817264,,,,
-0.03762882,0.0104138255,,,,
-0.03622094,-0.0018348661,,,,
-0.08511281,0.020094348,,,,
-0.040655505,-0.10043855,,,,
-0.06557468,-0.032238405,,,,
-0.0865509,0.12247983,,,,
-0.043442816,0.14985941,,,,
0.077876195,0.0019393313,,,,
0.093145676,0.005616171,,,,
0.07059198,0.0127458945,,,,
0.055411637,0.12674986,,,,
0.07083649,-0.21614185,,,,
0.029547825,0.06283765,,,,
0.030691788,-1.056735,,,,
-0.009991071,0.087901466,,,,
-0.07350188,-0.051712424,,,,
-0.041413248,-0.37480208,,,,
-0.043953136,0.042124886,,,,
-0.05861006,-0.08466944,,,,
-0.06617632,0.07260092,,,,
-0.08094713,0.16164567,,,,
-0.061386522,0.01255641,,,,
-0.02780654,-0.17816748,,,,
-0.09120583,0.2110692,,,,
-0.07631716,-0.09581057,,,,
-0.052672025,-0.6637052,,,,
-0.045577426,0.06946136,,,,
-0.068157084,-0.084488146,,,,
-0.07824815,-0.009561839,,,,
-0.08280675,-0.10744853,,,,
-0.07289159,0.038210783,,,,
-0.075008884,-0.028832795,,,,
-0.054143146,0.031486455,,,,
-0.09265219,-0.1075718,,,,
-0.052720323,-0.044141848,,,,
-0.08501689,0.37548706,,,,
-0.040037435,-0.06565563,,,,
0.03529479,0.14631133,,,,
0.079887256,-0.1789212,,,,
0.050603084,0.11855762,,,,
0.009042455,0.05447432,,,,
-0.008397235,0.011591346,,,,
0.017752402,0.021807527,,,,
-0.06852175,0.459358,,,,
-0.07500048,0.59105337,,,,
-0.029162124,-0.117455676,,,,
-0.07415129,-0.04580839,,,,
-0.024713555,0.4650187,,,,
-0.06742947,0.06756061,,,,
-0.029269427,0.117750466,,,,
-0.05238346,0.0035684265,,,,
-0.09086239,0.14092316,,,,
-0.07154079,-0.9395548,,,,
-0.09217738,-0.08621373,,,,
-0.04528805,0.06049574,,,,
-0.08057387,0.0017613602,,,,
-0.06243796,-0.22479744,,,,
-0.025203189,-0.07616117,,,,
-0.055950407,-0.060991477,,,,
-0.07728326,-0.1527172,,,,
-0.058349967,0.20837337,,,,
-0.08980421,0.0781775,,,,
-0.0748432,-0.078001104,,,,
-0.026937284,0.075797886,,,,
-0.07472894,1.0436622,,,,
-0.08143973,0.1038966,,,,
0.051916845,0.13264516,,,,
0.076566845,-0.11729906,,,,
0.023502538,-0.06859494,,,,
0.033477385,0.107316904,,,,
0.005237954,0.049178213,,,,
0.028874787,0.047774397,,,,
0.034911793,-0.037257735,,,,
-0.060131986,-0.10134931,,,,
-0.05963997,-0.02207479,,,,
-0.06923416,-0.15247929,,,,
-0.06452444,0.11094058,,,,
-0.036310155,-0.035155013,,,,
-0.09194375,-0.033074155,,,,
-0.07614515,-0.0442134,,,,
-0.08290917,0.01924343,,,,
-0.082514904,0.041889712,,,,
-0.060802225,-0.0062094554,,,,
-0.048833862,-0.0362938,,,,
-0.09011846,-0.11256123,,,,
-0.035642017,-0.016396703,,,,
-0.065036006,-0.019499049,,,,
-0.06793484,0.13935128,,,,
-0.07416326,-0.032339964,,,,
-0.08671741,-0.06850516,,,,
-0.07489118,-0.044265553,,,,
-0.05869657,0.00017488975,,,,
-0.07491726,-0.0030381086,,,,
-0.0070813005,0.22075608,,,,
-0.035667293,0.17014413,,,,
0.021214915,-0.28358123,,,,
0.00024917297,-0.08343496,,,,
0.009056922,-0.04384161,,,,
0.01628209,0.046194382,,,,
0.006690741,0.15666996,,,,
-0.024061251,0.047457386,,,,
-0.043774866,0.06985789,,,,
-0.07007341,-0.060647026,,,,
-0.06960694,-0.054098103,,,,
-0.094817385,0.06486941,,,,
-0.047332857,-0.10205354,,,,
-0.07260648,-0.12874356,,,,
-0.043938603,-0.07924123,,,,
-0.07395709,0.043781877,,,,
-0.05258596,0.006238236,,,,
-0.04298386,-0.048038032,,,,
-0.030822905,0.117937446,,,,
-0.041963574,-0.096330434,,,,
-0.047768556,0.11312954,,,,
-0.0797054,-0.022428563,,,,
-0.07192401,0.036888927,,,,
-0.030255795,0.13098389,,,,
-0.0900127,-0.061146133,,,,
-0.060793865,0.0040699663,,,,
-0.022872468,0.18172126,,,,
-0.06700965,0.024814641,,,,
0.004633227,0.31629637,,,,
0.027408635,0.024349775,,,,
0.0061117285,0.07555382,,,,
0.03411123,-0.05391928,,,,
-0.011887653,0.2870623,,,,
0.023941467,-0.083720684,,,,
-0.021983467,-0.07279623,,,,
0.0015818903,0.057239022,,,,
0.021630706,0.15158711,,,,
0.025070067,0.1166659,,,,
-0.027380174,-0.26458406,,,,
0.023225756,0.06946144,,,,
0.0020344174,0.01883081,,,,
-0.032674663,-0.071563885,,,,
0.0039225137,0.0808629,,,,
0.00620286,0.18237516,,,,
-0.057039924,0.016103456,,,,
-0.1191818,0.05474589,,,,
-0.15594023,0.051601026,,,,
-0.0896298,0.068479575,,,,
0.025515843,0.104270436,,,,
0.024115665,-0.13146535,,,,
-0.035090573,-0.0018480665,,,,
0.03230383,0.11532764,,,,
-0.022040496,0.067158975,,,,
-0.021773854,-0.0068325303,,,,
0.013290185,0.15380901,,,,
-0.0071263146,-0.052648365,,,,
0.021195805,-0.11427998,,,,
0.03447228,0.18115596,,,,
-0.0004130006,-0.3132618,,,,
0.024094127,0.008078047,,,,
-0.013121325,0.38932014,,,,
0.004858992,0.11964762,,,,
0.022675337,0.04966241,,,,
-0.00738456,0.1295737,,,,
-0.018476443,-0.098382264,,,,
0.011824778,0.0381766,,,,
-0.2942382,-0.082351945,,,,
-0.26402873,-0.01744835,,,,
-0.27470344,0.13789557,,,,
-0.15536925,0.034177344,,,,
-0.2043319,-0.028420357,,,,
-0.25647473,-0.022113934,,,,
-0.27604458,-0.07997381,,,,
-0.27289677,0.024224479,,,,
-0.38713157,0.13571733,,,,
-0.45163068,0.05700634,,,,
-0.4764171,-0.01704857,,,,
-0.4306649,0.104970664,,,,
0.25595126,-0.38867787,,,,
0.09762512,-0.16001596,,,,
-0.10196149,0.06765988,,,,
0.12413679,0.16633661,,,,
-0.2910398,-0.039580677,,,,
-0.29975915,-0.020135123,,,,
-0.012317194,-0.032211035,,,,
0.010630463,0.15942447,,,,
-0.012263448,0.081563324,,,,
0.034754455,-0.071114816,,,,
0.019805789,-0.0027344981,,,,
0.028639812,0.024189664,,,,
0.008890276,0.12429072,,,,
-0.38892937,0.002934986,,,,
-0.3202846,0.10316913,,,,
0.019191416,-0.052813474,,,,
-0.2599336,0.092035025,,,,
-0.32048663,0.47408548,,,,
-0.31224155,0.07408914,,,,
-0.42656657,0.020969098,,,,
-0.3827243,0.003248328,,,,
-0.30032617,0.36442047,,,,
-0.26729167,-0.03021914,,,,
-0.3205038,0.05883143,,,,
-0.30028436,0.04768606,,,,
-0.28951845,0.046136633,,,,
-0.41323203,0.009642675,,,,
-0.24329458,0.00515703,,,,
-0.3183474,-0.042843927,,,,
-0.3583348,0.008888196,,,,
0.020641528,-0.0033744848,,,,
0.38136035,0.002834159,,,,
0.41299754,0.16466099,,,,
0.3393273,0.050772186,,,,
0.13875717,-0.083141245,,,,
-0.09297732,0.14881313,,,,
-0.008470247,0.022519227,,,,
-0.03540794,-0.27812764,,,,
0.013378353,0.07779671,,,,
0.021853035,0.12549835,,,,
0.45474118,0.030938067,,,,
-0.38030177,0.08437628,,,,
-0.39860147,0.019787822,,,,
-0.06749388,0.09280115,,,,
-0.3457521,0.035346936,,,,
-0.28957886,0.03522248,,,,
-0.32236978,-0.117307454,,,,
-0.32915625,0.1361694,,,,
-0.24013396,-0.009076961,,,,
-0.20133756,-0.06591049,,,,
-0.34056425,0.15041079,,,,
-0.30398944,-0.1200281,,,,
-0.4090326,0.8518476,,,,
-0.5094202,0.08443628,,,,
-0.27284497,0.067179464,,,,
-0.22467656,0.051963273,,,,
-0.26612514,0.046399266,,,,
-0.052560106,-0.10587288,,,,
0.0058401404,-0.017909816,,,,
-0.2226849,0.08557021,,,,
-0.48094943,0.06450964,,,,
-0.5691936,0.1153651,,,,
-0.5073352,-0.18962874,,,,
-0.014982904,-0.16425502,,,,
0.20878269,-0.04385961,,,,
0.014128439,0.028170362,,,,
0.008356559,0.095861144,,,,
0.0005885296,0.04081537,,,,
0.52960324,-0.013295362,,,,
0.54804313,-0.056083385,,,,
0.16784048,0.01159162,,,,
0.30413175,0.047613498,,,,
-0.030035563,-0.02061832,,,,
-0.28791627,0.04615755,,,,
-0.17899507,-0.060123127,,,,
-0.30512726,0.11361788,,,,
-0.17218357,0.20002948,,,,
-0.19859536,0.002975536,,,,
-0.022494854,-0.3145125,,,,
0.008370299,0.1457943,,,,
-0.19165717,0.13755488,,,,
-0.037376508,0.08528313,,,,
0.007685761,0.058755692,,,,
-0.028638838,-0.030554006,,,,
-0.042917255,-0.09058914,,,,
0.0061666793,-0.032772556,,,,
-0.15801771,-0.0037151235,,,,
-0.21576883,-0.08777644,,,,
-0.23873937,-0.19296831,,,,
-0.29238778,0.11157843,,,,
-0.13309406,-0.10175695,,,,
-0.06397915,-0.023843236,,,,
-0.41148442,-0.023041168,,,,
-0.2755081,0.23838182,,,,
-0.035041593,0.16190201,,,,
-0.01742025,-0.033597786,,,,
0.25760514,0.027772155,,,,
-0.23895602,0.021526419,,,,
-0.084310755,0.010970405,,,,
0.34689477,-0.0058463826,,,,
0.18668401,0.09752435,,,,
0.1612584,-0.2057623,,,,
0.050840985,-0.015454587,,,,
0.056348417,0.004771827,,,,
0.08251552,-0.05111186,,,,
0.0030292787,-0.019143268,,,,
0.0040002055,-0.023413384,,,,
-0.09813308,0.085450575,,,,
0.0092061795,0.06976036,,,,
0.0991675,-0.15847898,,,,
-0.008176404,0.25401953,,,,
-0.024965182,0.09031974,,,,
0.065699756,-0.00969305,,,,
0.03136561,-0.034710117,,,,
-0.23660053,0.1792879,,,,
-0.25044495,-0.13054244,,,,
-0.1768196,-0.057301544,,,,
0.11742131,-0.0640692,,,,
-0.12065101,0.12306778,,,,
-0.51828974,-0.02474673,,,,
-0.6178669,-0.20022872,,,,
-0.39176163,0.13398285,,,,
0.026108572,0.117881365,,,,
-0.008289087,-0.16980125,,,,
-0.15653276,-0.10118134,,,,
-0.105266325,0.08446706,,,,
0.17282179,-0.016203592,,,,
0.22172838,0.122782014,,,,
0.13802984,0.14813583,,,,
0.119460426,0.48211417,,,,
0.13664037,0.02528567,,,,
0.064031735,0.11330097,,,,
-0.036382318,-0.12225639,,,,
-0.03823406,0.10114423,,,,
-0.01557512,0.067553766,,,,
0.0060629766,-0.050631426,,,,
0.059902407,-0.34767643,,,,
0.014247696,-0.1875519,,,,
0.015044154,0.10989839,,,,
0.09039735,0.083812445,,,,
0.021919772,0.065819,,,,
-0.10520204,-0.038742352,,,,
-0.21744564,0.051390164,,,,
-0.1182827,-0.030481419,,,,
-0.10244745,0.045521263,,,,
-0.17002676,-0.93373114,,,,
-0.3135553,-0.000509222,,,,
-0.585445,-0.0014244334,,,,
-0.2333778,-0.0015705124,,,,
-0.35502577,0.48226383,,,,
0.032898366,0.06971438,,,,
0.022530248,0.05525752,,,,
0.35185435,0.009928934,,,,
0.26256004,0.070915945,,,,
0.07305373,-0.0098756,,,,
0.19925256,0.020264944,,,,
0.060836185,0.047033343,,,,
0.015314589,-0.14654718,,,,
-0.054936532,-0.033718243,,,,
0.068061545,0.018889988,,,,
-0.06712876,0.035594475,,,,
-0.076748446,0.15736134,,,,
-0.03613513,-0.12784036,,,,
-0.020512443,0.12552693,,,,
0.012517218,-0.06308949,,,,
-0.0014014763,-0.05792525,,,,
0.07220607,-0.02329681,,,,
0.09152614,0.059359454,,,,
0.027815163,-0.083865136,,,,
-0.050061814,-0.09043359,,,,
-0.10771325,0.09396174,,,,
-0.06437914,0.05518963,,,,
-0.08578411,-0.06481529,,,,
-0.1730304,-0.029128175,,,,
-0.20477648,-0.10374699,,,,
-0.23887329,0.070302084,,,,
-0.2152185,-0.007040797,,,,
-0.5734137,-0.13413681,,,,
-0.53754586,0.023841852,,,,
-0.35843664,-0.12644754,,,,
0.7453908,0.13042895,,,,
0.0796655,0.028313875,,,,
0.0143080205,0.08754281,,,,
0.17386752,-0.09875635,,,,
0.028597148,-0.021926966,,,,
-0.12399132,-0.0016621366,,,,
-0.050423414,-0.05555997,,,,
-0.08247971,-0.07013452,,,,
-0.15059797,-0.023023114,,,,
-0.17806941,-0.14101274,,,,
-0.1565106,-0.078057766,,,,
-0.06311937,-0.026971038,,,,
-0.011055842,-0.05240014,,,,
0.07963416,0.019406097,,,,
0.07774438,-0.12892051,,,,
0.05361172,-0.017430201,,,,
0.027443707,-0.014844425,,,,
-0.05931465,-0.011503447,,,,
-0.09081789,-0.117989115,,,,
-0.025141854,-0.138735,,,,
-0.18530929,0.015103784,,,,
-0.22708355,-0.017404301,,,,
-0.19063003,-0.14597511,,,,
-0.09908156,-0.17288561,,,,
-0.29141408,-0.14525999,,,,
-0.43058524,0.021000646,,,,
0.065927096,-0.04663763,,,,
0.2685594,-0.14250733,,,,
-0.15541959,-0.11458465,,,,
-0.5554228,0.008764955,,,,
0.13326307,-0.047435787,,,,
0.00876452,-0.13912119,,,,
-0.12769578,-0.14016497,,,,
-0.07558652,0.03473769,,,,
-0.10233423,0.008835023,,,,
-0.16635603,0.0049968865,,,,
-0.14118811,0.002672519,,,,
-0.17674282,0.038271405,,,,
-0.046018198,-0.11024831,,,,
0.04308607,-0.051149957,,,,
0.07050787,-0.004873352,,,,
0.17383061,-0.013030909,,,,
0.1252585,-0.05532718,,,,
0.1575903,0.03503697,,,,
0.08943757,0.021424774,,,,
-0.023220189,-0.019088127,,,,
0.028323133,-0.008944193,,,,
-0.09883368,-0.0646201,,,,
-0.11009036,0.009338601,,,,
-0.17888577,-0.12247722,,,,
-0.25776184,0.04804882,,,,
-0.37426326,0.09531744,,,,
-0.37087274,-0.020922175,,,,
-0.5239478,-0.034112826,,,,
0.062034033,-0.080001816,,,,
0.2875431,0.006556878,,,,
0.26381567,-0.029378077,,,,
-0.17264473,-0.024845582,,,,
0.029854115,-0.053989824,,,,
-0.057185724,0.0005377031,,,,
-0.2094383,-0.1427925,,,,
-0.1778678,-0.031218925,,,,
-0.1380067,0.004052066,,,,
-0.23222871,0.11233282,,,,
-0.1386997,-0.0719652,,,,
-0.010129918,-0.019387074,,,,
0.028495392,-0.11411608,,,,
0.08755499,-0.07758064,,,,
0.002580664,0.11244593,,,,
0.150729,0.007127667,,,,
0.19606286,0.11996855,,,,
0.17409484,-0.029436078,,,,
0.11076054,-0.06006817,,,,
0.08695168,-0.1462138,,,,
0.02456541,-0.13475765,,,,
-0.051519565,-0.018813338,,,,
-0.027640251,0.059943013,,,,
-0.24809437,-0.011952892,,,,
-0.24460062,0.13444078,,,,
-0.25377047,-0.07845886,,,,
-0.3535115,-0.0030774819,,,,
-0.17773446,-0.14784124,,,,
0.12034297,-0.036071144,,,,
0.123363994,0.11315296,,,,
0.43424347,0.027096799,,,,
0.41470122,0.015630657,,,,
-0.04458588,-0.13333395,,,,
-0.1391793,-0.12929843,,,,
-0.23932824,-0.06783129,,,,
-0.1665775,-0.081305124,,,,
-0.097218364,0.03743502,,,,
-0.12303636,0.08558015,,,,
0.05884717,-0.14928503,,,,
0.19579642,0.004976515,,,,
0.2960922,-0.0014513038,,,,
0.114028424,0.12008373,,,,
-0.058593515,-0.124320924,,,,
0.015521957,-0.025244309,,,,
0.18897328,-0.04664187,,,,
0.18474633,0.06279434,,,,
0.11171794,-0.019325519,,,,
0.11406916,-0.014272141,,,,
0.07273201,-0.0710969,,,,
-0.08890091,0.14129888,,,,
-0.13441671,-0.13990147,,,,
-0.20871069,-0.14273073,,,,
-0.37106693,-0.13280919,,,,
-0.42774475,0.025422001,,,,
-0.37361896,-0.004587582,,,,
-0.24400762,-0.124309406,,,,
0.124434724,0.05405262,,,,
0.04783693,-0.073336214,,,,
0.5940573,0.096581586,,,,
0.19554734,0.07238976,,,,
-0.4368936,-0.089935414,,,,
-0.34162232,0.043153357,,,,
-0.19987753,0.12702769,,,,
-0.04148963,0.06974703,,,,
-0.051002115,-0.004981044,,,,
0.04276636,-0.0060543804,,,,
0.20893021,0.03225843,,,,
0.36495167,0.074555285,,,,
0.37981257,-0.007599404,,,,
0.13458835,0.037099797,,,,
-0.08255932,-0.16177967,,,,
0.054069385,0.034529757,,,,
0.12752457,-0.20149218,,,,
0.17438225,0.03716707,,,,
0.10927829,0.7191975,,,,
0.103212394,0.12110623,,,,
-0.005380652,0.12313468,,,,
0.0028788103,-0.07098735,,,,
-0.034973152,0.062463276,,,,
-0.13657162,0.04550551,,,,
-0.16930807,0.08831616,,,,
-0.29414487,0.14422275,,,,
-0.2862114,-0.01591264,,,,
-0.49837798,0.023662379,,,,
-0.04064479,-0.092609845,,,,
-0.11565638,-0.020907458,,,,
0.2867992,0.10897949,,,,
0.11986446,0.044554863,,,,
-0.045888275,0.09480936,,,,
-0.095006004,-0.046182957,,,,
-0.10842796,0.021703655,,,,
-0.08866703,0.0016578386,,,,
0.03636986,0.039195,,,,
0.15856671,0.07189999,,,,
0.30065966,-0.12148421,,,,
0.3693424,-0.06920238,,,,
0.23927714,0.09694998,,,,
-0.0053028334,0.046857268,,,,
-0.094183184,0.009838495,,,,
-0.005847301,0.021293024,,,,
0.12606968,-0.28964642,,,,
0.20347703,0.028444422,,,,
0.122889526,0.13504316,,,,
0.060801648,-0.044054285,,,,
-0.039072044,-0.09477163,,,,
0.02195572,-0.054686774,,,,
-0.11865122,0.048593234,,,,
-0.23022589,0.04597303,,,,
-0.07197445,-0.01757667,,,,
-0.02901803,-0.013458817,,,,
0.2309091,0.21527466,,,,
-0.3231929,0.098046415,,,,
-0.35444528,-0.05583532,,,,
-0.08460125,0.10467524,,,,
-0.030027838,-0.07378754,,,,
-0.041035514,-0.01796311,,,,
0.20308359,0.09075408,,,,
-0.09222873,-0.076479204,,,,
-0.2590177,0.16381331,,,,
-0.11104958,0.0042500743,,,,
0.00911161,0.30804712,,,,
0.20134668,0.15660574,,,,
0.28734684,0.055751197,,,,
0.25068724,0.27879745,,,,
0.14245124,0.14376312,,,,
-0.09466159,0.0049217627,,,,
-0.110250555,0.06053416,,,,
-0.009585404,0.003640588,,,,
0.22087446,0.017090369,,,,
0.21142179,0.075442515,,,,
0.1592778,0.2995336,,,,
0.13163978,-0.08583947,,,,
0.027761003,0.2531864,,,,
-0.09025089,0.08521651,,,,
-0.08803374,0.19644193,,,,
-0.083004884,-0.0063136597,,,,
0.021093937,0.120234884,,,,
-0.06079858,-0.01013024,,,,
-0.4066486,0.13580728,,,,
-0.28111592,-0.0054176357,,,,
-0.2970536,-0.009573149,,,,
0.03196471,0.11818896,,,,
0.8973822,-0.043759022,,,,
-0.13179061,0.10809604,,,,
-0.039233204,-0.0033636543,,,,
-0.13892311,0.13225085,,,,
-0.27239245,0.03845426,,,,
-0.13103971,-0.12768,,,,
0.019582838,-0.033331137,,,,
0.1586628,0.033071212,,,,
0.22080944,-0.15410274,,,,
0.18866248,-0.10787125,,,,
0.00429322,0.063841835,,,,
-0.13931513,0.06436317,,,,
-0.13225876,-0.39413506,,,,
0.018630518,0.04890394,,,,
0.20212923,0.15349087,,,,
0.23760809,-0.06896477,,,,
0.21883538,-0.26847115,,,,
0.16502629,0.80656564,,,,
-0.015150557,-0.0057627223,,,,
-0.039903868,0.0461872,,,,
-0.041564643,0.14335555,,,,
-0.0996694,0.08158013,,,,
-0.30912247,0.11072135,,,,
-0.41671154,0.114512414,,,,
-0.14085416,0.1401798,,,,
-0.29671282,-0.24714096,,,,
0.092752166,-0.025260687,,,,
0.046836,0.07544362,,,,
0.59290403,0.08294637,,,,
-0.21866658,-0.6153793,,,,
-0.14992598,0.024754098,,,,
-0.12023481,0.06863609,,,,
-0.20251681,0.072364606,,,,
-0.1311958,-0.033697333,,,,
0.005603286,-0.038508534,,,,
0.052976217,0.049545836,,,,
0.15173866,-0.058425684,,,,
0.118647456,-0.005952121,,,,
-0.029701792,-0.102025285,,,,
-0.15509628,-0.057316884,,,,
-0.08104353,0.019602597,,,,
0.07437692,-0.049277887,,,,
0.21084666,0.080072604,,,,
0.22774464,-0.0062182983,,,,
0.17456214,0.008859183,,,,
0.01750108,0.0024954255,,,,
-0.06433409,-0.043505173,,,,
-0.09767305,-0.058534313,,,,
-0.13823901,-0.14807662,,,,
-0.13246796,0.016240707,,,,
-0.23158386,-0.10587101,,,,
-0.32430187,-0.12187973,,,,
-0.4971496,0.04883941,,,,
-0.23638523,-0.033292428,,,,
0.01424772,0.08356562,,,,
0.19717908,-0.13510843,,,,
0.59727544,0.014522773,,,,
-0.15001592,0.017653361,,,,
-0.15584031,-0.113762274,,,,
-0.16977422,-0.125589,,,,
-0.2379082,-0.035834752,,,,
-0.16082309,-0.009188741,,,,
-0.06242021,-0.045741625,,,,
-0.02470164,0.0024493476,,,,
0.065325014,-0.094302975,,,,
-0.01745879,0.012412646,,,,
-0.13143735,0.09112551,,,,
-0.117806725,-0.061322942,,,,
0.044885196,0.08127478,,,,
0.09318791,-0.13164036,,,,
0.17636949,-0.024883777,,,,
0.042232372,-0.023740886,,,,
0.06059403,-0.0750451,,,,
-0.036082648,-0.13074492,,,,
-0.13434352,-0.06418292,,,,
-0.099398054,-0.052420173,,,,
-0.0671932,-0.088586435,,,,
-0.07853408,0.070420586,,,,
-0.20362537,-0.049990963,,,,
-0.26063952,-0.111873716,,,,
-0.16633368,-0.025688577,,,,
-0.5608683,0.06443067,,,,
-0.06675221,0.0121181775,,,,
0.2943157,0.035930447,,,,
0.71252847,-0.1023619,,,,
0.33334416,-0.014671756,,,,
0.047616214,0.09497324,,,,
-0.16637395,-0.069495246,,,,
-0.20036377,0.002813787,,,,
-0.23236096,-0.06343917,,,,
-0.14065784,0.006345128,,,,
-0.104814656,0.045257047,,,,
0.009722009,0.005019779,,,,
0.056993827,-0.08567062,,,,
-0.059247654,-0.037655503,,,,
-0.060005963,0.096396446,,,,
0.10074372,-0.054950446,,,,
0.09357444,-0.1333832,,,,
0.06615174,-0.0018058338,,,,
-0.004580783,-0.07549117,,,,
-0.049347088,-0.14661147,,,,
-0.056952525,0.13458997,,,,
-0.14297791,-0.10369689,,,,
0.05263619,0.002011093,,,,
-0.048465144,-0.024741095,,,,
-0.09931454,0.010209454,,,,
-0.23678452,-0.06952664,,,,
-0.22887565,-0.10829271,,,,
0.5786054,-0.05003178,,,,
0.2569191,0.14280702,,,,
0.006456063,0.09923466,,,,
0.24485384,0.022976408,,,,
0.3167846,0.016713586,,,,
0.80861783,-0.14020981,,,,
0.21194647,0.036568508,,,,
-0.063647166,-0.11981103,,,,
-0.16405293,-0.076599576,,,,
-0.16914941,0.022074042,,,,
-0.23033217,-0.050698277,,,,
-0.1801523,-0.09948357,,,,
-0.06434239,-0.06593598,,,,
0.079698086,-0.07003518,,,,
0.01106901,-0.11261676,,,,
-0.0790048,0.0067422413,,,,
0.0014995022,-0.11909377,,,,
0.05840988,0.00058308203,,,,
0.031104263,-0.017438272,,,,
-0.10318042,-0.009654548,,,,
-0.17626332,-0.03723999,,,,
-0.16296983,-0.019066324,,,,
-0.20451047,-0.095183544,,,,
0.043219894,-0.009738702,,,,
-0.18224213,-0.06604335,,,,
-0.27314228,-0.10272209,,,,
-0.2620791,-0.00015918212,,,,
-0.14242564,0.02399109,,,,
0.015321441,-0.04719759,,,,
0.5133974,-0.055746064,,,,
-0.03394222,-0.12949567,,,,
0.32632855,-0.06826466,,,,
0.08508928,-0.12514462,,,,
0.69138265,0.0038876608,,,,
0.26905957,0.02285453,,,,
-0.07584135,-0.023162492,,,,
-0.18716817,-0.13553722,,,,
-0.22777532,-0.0089500835,,,,
-0.26717263,-0.029206514,,,,
-0.20426299,-0.006193691,,,,
-0.09171764,0.026362287,,,,
0.02564552,-0.06275654,,,,
0.0009827145,-0.025886409,,,,
-0.0531138,-0.0029590612,,,,
0.022806259,-0.13515335,,,,
-0.012313131,0.054264322,,,,
-0.019196037,-0.10510403,,,,
-0.15499641,0.011548708,,,,
-0.16218425,0.0049582752,,,,
-0.20058009,-0.10689546,,,,
-0.14153357,-0.055230744,,,,
-0.10540026,-0.14003462,,,,
-0.09553154,-0.0691612,,,,
-0.21674441,-0.03759471,,,,
-0.053941246,-0.09295417,,,,
0.235245,-0.0060527273,,,,
0.30034822,-0.10311025,,,,
0.10813657,-0.14415465,,,,
0.0564059,0.121416256,,,,
0.48735067,0.10601385,,,,
-0.1343017,-0.073070765,,,,
0.40556625,-0.07821051,,,,
0.052074637,0.17940935,,,,
0.23629008,0.005464068,,,,
-0.14843783,0.14356445,,,,
-0.20576726,-0.053584877,,,,
0.052911054,-0.09072694,,,,
-0.02499357,-0.047618322,,,,
0.027912004,0.101857,,,,
0.029711757,0.011128721,,,,
0.010466467,0.039098028,,,,
-0.1019756,0.06941021,,,,
-0.081962235,0.04984072,,,,
-0.066952005,0.1467133,,,,
-0.024743188,0.03210922,,,,
-0.1569369,0.0023927358,,,,
-0.024572313,0.023866842,,,,
-0.041039754,0.105793804,,,,
0.07678154,0.027891595,,,,
0.23182227,0.14486374,,,,
0.023818607,-0.064679936,,,,
-0.40368,-0.014428112,,,,
-0.10891616,0.12489552,,,,
0.11852976,-0.023252072,,,,
-0.72058284,-0.12598297,,,,
0.056945022,-0.02047557,,,,
0.08345413,0.07863113,,,,
0.077513136,-0.16788974,,,,
0.3526171,0.04741259,,,,
0.2816743,-0.06962777,,,,
-0.11688626,0.048001554,,,,
-0.02990851,0.1059864,,,,
0.02692586,0.040288158,,,,
-0.0094759455,0.14562707,,,,
0.1026394,0.025534268,,,,
0.095218204,0.119292,,,,
0.08011373,0.029119963,,,,
-0.047978166,0.16091181,,,,
-0.074435994,0.08154626,,,,
-0.11069921,-0.11713383,,,,
-0.07629752,-0.17346275,,,,
-0.013596816,-0.10274487,,,,
0.03946181,0.083896264,,,,
-0.024985533,0.059784744,,,,
-0.010536907,-0.028742973,,,,
0.023326457,0.04153116,,,,
0.13836996,-0.18120763,,,,
0.3844594,0.044160042,,,,
0.04084866,-0.07888114,,,,
-0.30620193,0.12515499,,,,
-0.37158012,0.09171462,,,,
0.13399225,0.019479983,,,,
0.39507225,0.08585301,,,,
0.047915526,0.067951396,,,,
0.017002476,-0.009619028,,,,
0.001035503,-0.021934656,,,,
-0.7983237,0.16084445,,,,
0.13547058,0.116400056,,,,
-0.3849838,0.11089246,,,,
-0.32627323,0.082013324,,,,
-0.04164701,0.029248726,,,,
0.11001563,0.19709824,,,,
0.039819673,-0.016194746,,,,
0.11622653,-0.08282566,,,,
0.20105314,-0.0077117425,,,,
0.033267632,0.087564185,,,,
-0.033390287,-0.06926826,,,,
-0.09421295,0.12640856,,,,
-0.012747338,-0.15893383,,,,
-0.049020488,-0.21467847,,,,
-0.02821553,0.023059405,,,,
-0.011595957,-0.032358114,,,,
-0.04879727,0.07669213,,,,
0.032304544,0.18751104,,,,
-0.092791,0.10204799,,,,
0.24429063,-0.14953749,,,,
-0.12556553,0.22472432,,,,
-0.27452645,-0.11213033,,,,
-0.31992725,0.33621716,,,,
0.45991468,0.036217157,,,,
0.40444937,0.11325948,,,,
-0.025639625,0.07176212,,,,
-0.010182488,0.010338044,,,,
-0.022721346,0.11356891,,,,
0.28995714,-0.046268616,,,,
-0.013989678,0.11635138,,,,
-0.13554208,-0.113251895,,,,
0.0030892566,0.091050394,,,,
0.059961718,0.18682998,,,,
0.08372188,0.09344776,,,,
0.03674234,-0.0028056756,,,,
-0.023247628,-0.107228436,,,,
-0.008006225,-0.02886093,,,,
0.043375656,-0.093076736,,,,
-0.12572321,0.03715802,,,,
-0.14298683,0.0048296214,,,,
-0.118738085,-0.056075636,,,,
-0.084755175,0.2759578,,,,
-0.12402318,0.0408461,,,,
-0.0044433363,0.17159683,,,,
-0.08509079,0.011099941,,,,
-0.10877875,-0.021847444,,,,
-0.15655714,0.22263502,,,,
-0.104611084,-0.0034805958,,,,
0.30589485,0.04248068,,,,
0.070191644,0.18969095,,,,
-0.34796223,0.015824774,,,,
0.4099383,0.007373707,,,,
-0.12114842,0.09029775,,,,
0.028335437,0.11790193,,,,
-0.031946644,0.0800528,,,,
-6.163972e-05,-0.15376695,,,,
0.24112786,0.022620536,,,,
0.14168052,0.13899301,,,,
0.20496537,0.040332597,,,,
0.37952787,-0.11742935,,,,
0.009558507,0.042087775,,,,
0.016197044,0.5770748,,,,
-0.025087588,0.04581043,,,,
-0.04776596,0.05300139,,,,
-0.1476807,0.045731615,,,,
-0.087306514,-0.02862679,,,,
-0.14398526,0.07424745,,,,
-0.111258805,-0.023346473,,,,
-0.068538986,0.03631573,,,,
-0.105043925,0.05331694,,,,
-0.08800029,0.045206968,,,,
-0.044721603,0.046681162,,,,
0.04695612,-0.12505667,,,,
-0.39721325,0.035203382,,,,
-0.35881287,-0.10791081,,,,
-0.3300715,0.071627505,,,,
-0.37829646,-0.024297796,,,,
0.045552313,-0.08156709,,,,
-0.31213242,-0.08055568,,,,
0.31630373,0.04063547,,,,
-0.078459285,0.10565638,,,,
-0.022649456,-0.07873735,,,,
-0.008883438,-0.069414884,,,,
0.032893397,-0.05158272,,,,
0.009144034,0.106337175,,,,
0.2165467,0.074031346,,,,
0.5764349,-0.035459798,,,,
0.74481934,-0.1111906,,,,
0.46110293,-0.1190291,,,,
0.17188379,0.022088975,,,,
0.1598601,-0.15482497,,,,
0.14273512,0.122254,,,,
-0.124075525,0.038546152,,,,
-0.22653396,-0.108913645,,,,
-0.077864066,-0.036363464,,,,
-0.24079672,-0.012495082,,,,
-0.095536485,-0.1813592,,,,
0.18769623,0.008917048,,,,
0.07332748,0.07967888,,,,
-0.031799275,0.06399644,,,,
-0.1670595,0.12838146,,,,
-0.27324757,0.019382898,,,,
-0.27229235,-0.12455473,,,,
-0.21137632,0.097796634,,,,
-0.41501105,0.024812656,,,,
-0.40024534,0.12829377,,,,
-0.13751909,0.076159306,,,,
0.030760316,-0.01068843,,,,
0.023623247,-0.12934414,,,,
-0.035466116,0.025889903,,,,
-0.03299712,0.14763008,,,,
-0.011574716,0.1502035,,,,
0.024792545,0.061063252,,,,
-0.012793086,-0.02903301,,,,
0.024499048,-0.01931154,,,,
0.05008361,0.076535426,,,,
-0.014066317,0.007461525,,,,
-0.0793156,-0.006381513,,,,
-0.17086567,-0.04769399,,,,
-0.039905515,0.15143682,,,,
-0.08157126,0.1703788,,,,
-0.14914155,0.015046022,,,,
-0.0055476725,-0.06029567,,,,
0.060524385,0.03212131,,,,
-0.010745547,-0.0097779045,,,,
0.03776771,0.112747036,,,,
0.3190936,0.10896703,,,,
0.38091713,-0.005620476,,,,
0.5223616,-0.5030588,,,,
-0.1737883,0.03426855,,,,
0.14795618,0.023516499,,,,
0.18457894,-0.016745152,,,,
0.18412124,0.06434004,,,,
-0.039828688,0.17259832,,,,
0.016994366,0.096834965,,,,
0.0032849738,0.09350193,,,,
-0.020580424,0.15899183,,,,
-0.0051995474,0.031208612,,,,
-0.0017957432,0.12582745,,,,
-0.0077045523,0.037947137,,,,
-0.014105351,0.15261365,,,,
-0.001620263,0.058056984,,,,
-0.019167602,0.11217762,,,,
-0.012314086,0.16690499,,,,
0.030645248,-0.095348254,,,,
-0.015724655,0.22811876,,,,
-0.006306495,0.09239527,,,,
-0.016631557,-0.02343481,,,,
0.029367886,0.24482833,,,,
-0.03247377,-0.11818042,,,,
-0.010541621,0.57204473,,,,
-0.037376422,0.054899126,,,,
0.014129423,0.021086602,,,,
0.0031664416,0.035546355,,,,
0.029685767,0.23596807,,,,
0.030634724,0.121962264,,,,
0.005878704,0.004704376,,,,
0.01602646,-0.025675504,,,,
0.0012102894,-0.026988355,,,,
0.0076105897,0.124510646,,,,
0.022840539,-0.03436557,,,,
0.008867196,-0.023953047,,,,
-0.018757332,0.03403155,,,,
0.03302998,0.009395402,,,,
-0.0054651415,-0.06696188,,,,
-0.030461853,-0.12042569,,,,
-0.007869422,-0.04379443,,,,
0.017502142,0.1364167,,,,
0.012352412,-0.38216,,,,
-0.008172333,0.08847754,,,,
0.07619974,0.12525953,,,,
0.15420951,0.004151708,,,,
0.3006746,-0.039984897,,,,
0.26840705,0.01553642,,,,
0.3724,0.14581178,,,,
0.23790783,0.17193544,,,,
0.207943,-0.2738694,,,,
0.2637548,0.8293187,,,,
0.2803317,0.055928417,,,,
0.3377966,0.06623965,,,,
0.18402468,0.12913798,,,,
0.21731447,-0.012184277,,,,
0.27776948,0.19166778,,,,
0.2414189,-0.08176594,,,,
0.18846576,0.032905012,,,,
0.28427464,-0.07749044,,,,
0.19379406,0.10912656,,,,
0.25124782,0.009394514,,,,
0.2404113,-0.043329623,,,,
0.27706823,0.4327826,,,,
-0.0059917825,-0.08783696,,,,
-0.020858247,-0.039420348,,,,
-0.022451036,0.03284698,,,,
0.0052727167,-0.00053529884,,,,
-0.01009119,-0.02562517,,,,
0.011191424,0.04512077,,,,
0.09088779,0.112086035,,,,
0.2131768,-0.10746529,,,,
0.19115973,0.1260832,,,,
0.1677279,-0.022463636,,,,
0.19859187,0.010882411,,,,
0.20754854,0.011310917,,,,
0.14077349,0.12793952,,,,
0.06856194,0.010470946,,,,
0.15649076,-0.010680665,,,,
0.18956268,0.16568631,,,,
0.1300842,0.17547241,,,,
0.08677748,0.015183219,,,,
0.08588656,0.0531655,,,,
0.10913995,-0.033704374,,,,
0.18136007,0.119468845,,,,
0.26981798,0.071017414,,,,
0.24233758,0.038961366,,,,
0.27988884,-0.024228364,,,,
0.23783046,0.15682301,,,,
0.1610621,0.0074812113,,,,
0.19716789,-0.000100421166,,,,
0.24607813,-0.026094295,,,,
0.21444623,0.001665137,,,,
0.16334587,0.050680507,,,,
0.01076944,-0.020954188,,,,
0.005730123,0.006080137,,,,
0.009636407,0.09444196,,,,
0.005409343,0.20502484,,,,
0.019815827,-0.09934874,,,,
0.2650965,0.06509417,,,,
0.29515764,0.024168354,,,,
0.20916446,-0.070331156,,,,
0.12037552,-0.036384057,,,,
-0.017192539,-0.042804446,,,,
0.05036284,0.13301869,,,,
0.023626078,-0.089858264,,,,
0.1318848,-0.03198083,,,,
0.12816983,0.16811588,,,,
0.17104883,0.007450834,,,,
0.133315,0.072949715,,,,
0.1144532,0.061432675,,,,
0.09112512,0.03404908,,,,
0.08703338,-0.0070486516,,,,
0.12106173,-0.0008465031,,,,
0.15660596,-0.112814225,,,,
0.23865682,0.01999803,,,,
0.29682353,0.017913453,,,,
0.35361966,-0.023695095,,,,
0.39532852,0.02428132,,,,
0.3784821,-0.030523736,,,,
0.20032778,0.280972,,,,
0.3090974,-0.115992166,,,,
0.6451645,-0.16875117,,,,
-0.031734742,0.09709827,,,,
-0.022394236,0.047294233,,,,
0.1353179,0.14481679,,,,
-0.2786676,0.058022995,,,,
-0.20617446,-0.057799533,,,,
-0.15675981,-0.07476954,,,,
0.09957393,-0.022171533,,,,
-0.021338603,0.054148566,,,,
-0.10431072,0.091355845,,,,
-0.014278459,0.35294157,,,,
0.0189845,0.19276032,,,,
0.111764215,0.17056236,,,,
0.12391419,-0.0141272275,,,,
0.053466037,-0.113410264,,,,
0.06736237,-0.030546186,,,,
0.04373666,-0.12305108,,,,
0.078835025,0.047078807,,,,
0.08058212,-0.08139291,,,,
0.08457868,-0.028581299,,,,
